
//<![CDATA[

// a few things don't have var in front of them - they update already existing variables the game needs
lanesSide = 4;
patchesAhead = 40;
patchesBehind = 10;
trainIterations = 500000;

// the number of other autonomous vehicles controlled by your network
otherAgents = 0; // max of 9

var num_inputs = (lanesSide * 2 + 1) * (patchesAhead + patchesBehind);
var num_actions = 5;
var temporal_window = 0;
var network_size = num_inputs * temporal_window + num_actions * temporal_window + num_inputs;

var layer_defs = [];
layer_defs.push({
    type: 'input',
    out_sx: 1,
    out_sy: 1,
    out_depth: network_size
});
layer_defs.push({
    type: 'fc',
    num_neurons: 10 * (lanesSide * 2 + 1),
    activation: 'relu'
});
layer_defs.push({
    type: 'fc',
    num_neurons: (lanesSide * 2 + 1),
    activation: 'relu'
});
layer_defs.push({
    type: 'regression',
    num_neurons: num_actions
});

var tdtrainer_options = {
    learning_rate: 0.001,
    momentum: 0.0,
    batch_size: 128,
    l2_decay: 0.1
};

var opt = {};
opt.temporal_window = temporal_window;
opt.experience_size = 0.1 * trainIterations;
opt.start_learn_threshold = 500;
opt.gamma = 0.9;
opt.learning_steps_total = 0.85 * trainIterations;
opt.learning_steps_burnin = 0.15 * trainIterations;
opt.epsilon_min = 0.3;
opt.epsilon_test_time = 0.0;
opt.layer_defs = layer_defs;
opt.tdtrainer_options = tdtrainer_options;

brain = new deepqlearn.Brain(num_inputs, num_actions, opt);

learn = function (state, lastReward) {
    brain.backward(lastReward);
    var action = brain.forward(state);

    draw_net();
    draw_stats();

    return action;
}

//]]>

/*###########*/
if (brain) {
brain.value_net.fromJSON({"layers":[{"out_depth":450,"out_sx":1,"out_sy":1,"layer_type":"input"},{"out_depth":90,"out_sx":1,"out_sy":1,"layer_type":"fc","num_inputs":450,"l1_decay_mul":0,"l2_decay_mul":1,"filters":[{"sx":1,"sy":1,"depth":450,"w":{"0":-0.2628493961702719,"1":-0.04827075917592781,"2":0.05667300015266012,"3":-0.0006611555224412952,"4":0.07046364344752172,"5":-0.04442126171508117,"6":0.14133355353807375,"7":-0.1594376017052402,"8":0.05131655872753665,"9":-0.0024302957421998895,"10":-0.043089150203203905,"11":0.02140361352957558,"12":0.008897772118417094,"13":-0.0021908417895529133,"14":-0.24054945652952228,"15":0.04270280709729242,"16":-0.07680579902933793,"17":0.06097591097667965,"18":0.023338237097249463,"19":0.15073182163209325,"20":-0.08352985591875609,"21":-0.04702691486273325,"22":-0.10920411827504158,"23":-0.10141316158258551,"24":0.05448000033423239,"25":-0.02911535691883028,"26":0.08256328665415398,"27":0.05832909839018186,"28":-0.06678014029549194,"29":-0.1286573219711355,"30":0.019172153631472733,"31":-0.04079655139245128,"32":-0.1087696018243909,"33":-0.0035982936340956816,"34":-0.19223183737682295,"35":-0.029170251620845012,"36":-0.07921623580951753,"37":0.03410729278220167,"38":-0.01197804352251025,"39":-0.0484168154248857,"40":0.011702733535730193,"41":-0.008277242392192212,"42":0.037711380961372255,"43":-0.02729068759831969,"44":0.018624849291127673,"45":0.09405270365322334,"46":0.08480465630152557,"47":-0.06891548757749291,"48":-0.10862988060713023,"49":0.042121647024332125,"50":0.11200441882080374,"51":-0.07014124660440636,"52":-0.006746559717306882,"53":0.12282084925914544,"54":-0.05377027512884078,"55":-0.10139972449251947,"56":0.03060291307840238,"57":0.07751514151658317,"58":-0.019341333957672093,"59":0.13888306449082466,"60":-0.17684708240366603,"61":-0.06511389412690226,"62":0.0035490509520393447,"63":-0.07357761863908925,"64":0.011415760932399604,"65":0.07345392711585579,"66":-0.05737467839296314,"67":0.09809264517616487,"68":0.11501410463443933,"69":0.0018936782868585618,"70":-0.10864728630838325,"71":0.07552695337423002,"72":0.003861321722559428,"73":-0.07939950217529712,"74":-0.0366583441081469,"75":0.06759769551559021,"76":0.0873098299705468,"77":0.016015000475168663,"78":-0.06552406176196958,"79":-0.11357483309740365,"80":0.04890261463549845,"81":-0.04505515243855966,"82":-0.08633626527531645,"83":-0.05955638687739272,"84":0.018802414986756395,"85":-0.004843253560803347,"86":-0.11119021740631758,"87":-0.02640022514134724,"88":-0.05118979130735438,"89":0.12692577033119418,"90":0.05004054513354768,"91":0.05611591836267277,"92":0.04067510331809086,"93":-0.021134660881659512,"94":0.07907485806608132,"95":-0.09943741808412897,"96":0.09407509047165821,"97":-0.005390166874348457,"98":0.019290621219610834,"99":0.049961574087825145,"100":-0.10411389386693737,"101":0.010271484602536648,"102":0.004197867079359375,"103":-0.010563721382588818,"104":-0.07278910578188204,"105":-0.06259527751163114,"106":0.08682144735424763,"107":-0.0011373979541142503,"108":0.11029292870641556,"109":0.018743049852208545,"110":-0.12915664751328493,"111":-0.05223685294551421,"112":0.06502738308956021,"113":-0.044870409147693815,"114":-0.057784238528871025,"115":-0.06133413617169978,"116":0.05557965985758957,"117":-0.06107421053699038,"118":0.04605733115051133,"119":-0.007935932499277957,"120":-0.020828138546767322,"121":-0.028930226146278836,"122":0.06960308132664333,"123":0.00006230706558276263,"124":-0.09456311286995941,"125":0.020088596648535108,"126":-0.00470553891515587,"127":0.06582101109416144,"128":-0.17718322510344572,"129":-0.11329682291495896,"130":0.14304511367029207,"131":0.11447645696059038,"132":-0.058090946423965256,"133":0.1629091708163751,"134":-0.047680569490016075,"135":0.03309130126720113,"136":0.07878148016777335,"137":-0.193724774617527,"138":-0.16010594469976983,"139":0.06812713820700651,"140":0.017727031833065413,"141":-0.13017340170914876,"142":0.09354868102973138,"143":-0.02454510444667118,"144":-0.0888833264012426,"145":-0.01140165341171288,"146":-0.00717027576710611,"147":-0.10015302502152067,"148":-0.04846483067274807,"149":-0.023908106348989808,"150":0.020809796077599977,"151":0.03791292253013222,"152":-0.033416840689899585,"153":0.007160480416692842,"154":0.014970918997829579,"155":0.017705304586043188,"156":-0.04859571143521886,"157":0.02235197128625693,"158":0.053671554790036144,"159":0.01138298523514563,"160":0.04605738217216429,"161":-0.051479982370659,"162":-0.0325182472058135,"163":0.061193017519136535,"164":-0.01205078480371259,"165":0.05259829588349411,"166":-0.029593210093617175,"167":-0.1347492262747621,"168":0.04215423186829578,"169":-0.03960605101816915,"170":0.09736916426929425,"171":-0.11828549440855493,"172":0.061038731073504084,"173":0.06956339780617009,"174":-0.01184291577192523,"175":0.10415815963051318,"176":-0.0666750902313035,"177":0.16780708049289603,"178":0.03028967343440179,"179":0.02666121117960544,"180":-0.05112556570181603,"181":0.12124186342033301,"182":0.014244277678774528,"183":-0.032307741806528005,"184":0.12244916670437421,"185":-0.1490917184496249,"186":0.1695042847863197,"187":0.1603025372534501,"188":0.06505962144439803,"189":-0.11581026784064202,"190":0.08735340525583903,"191":-0.01988443113006433,"192":0.017534823828720025,"193":0.05771635399467185,"194":-0.10008277197313231,"195":0.15862988281787094,"196":0.06593144218204526,"197":0.018697349692149746,"198":-0.11560104003180993,"199":-0.04375381915067723,"200":0.06331586390238278,"201":-0.03249959736762063,"202":-0.04380693541751784,"203":-0.0461728309815535,"204":0.02988664986288146,"205":0.07073340888248551,"206":-0.11652083345818078,"207":-0.06760574734533006,"208":-0.0659151002751656,"209":0.0605893012176343,"210":-0.011836179999053092,"211":-0.08293169329350912,"212":-0.08318920711025952,"213":-0.052147258551500916,"214":0.08767906222972308,"215":-0.03704104699804698,"216":0.10897740249190623,"217":-0.02796334440279012,"218":0.03216800437300898,"219":0.023549213949137556,"220":-0.0013755685600801931,"221":0.016045779346739647,"222":0.06219341995158209,"223":0.1309382515536988,"224":-0.06446667763553877,"225":0.034353871561025054,"226":0.019155457661542658,"227":0.11366234485195624,"228":-0.13238720216374575,"229":-0.16283307567531555,"230":-0.059988001399001636,"231":-0.041667745047130354,"232":0.058796941170794974,"233":-0.020909612173108945,"234":0.16449117370448085,"235":-0.05745987978415446,"236":0.1680255261436835,"237":-0.25053904574462743,"238":0.01968907035609625,"239":-0.11783571459325393,"240":-0.08241287864055558,"241":0.04208453812871816,"242":0.10846344542335366,"243":0.11846139683118359,"244":0.08766006302776955,"245":0.05049346796851078,"246":-0.22371159535866317,"247":-0.008794982983234133,"248":-0.06089529793368095,"249":0.14983273730411756,"250":-0.06156645023289412,"251":0.11755754756283132,"252":0.030625092300021303,"253":0.1115956938555265,"254":-0.06332553785580888,"255":-0.29693873599294407,"256":-0.19139523004061926,"257":-0.08098769426778549,"258":0.09358530710225063,"259":-0.07474217333347746,"260":0.050523979964198794,"261":0.06001252551475162,"262":0.050395771067278605,"263":-0.25590265504871823,"264":-0.05274655560589421,"265":0.02255239506528159,"266":-0.08896101268218151,"267":-0.06062369484248239,"268":0.09108207604321879,"269":0.08129589221777513,"270":-0.028846179562640836,"271":0.08756941756020004,"272":-0.12854679918080048,"273":0.04515756588861726,"274":-0.12382934648635938,"275":-0.15297481318660414,"276":0.12601333522938843,"277":0.06369537961669608,"278":-0.02916597178124555,"279":0.07311638915375294,"280":-0.0167361430119677,"281":-0.15410127335474252,"282":0.04150135319039449,"283":-0.04692343246774148,"284":-0.04777003218750863,"285":0.06380318987244003,"286":0.06722680799437049,"287":-0.12915530560441313,"288":0.001643987901019289,"289":-0.023205931024880902,"290":-0.030684484305437316,"291":-0.06864865772303141,"292":-0.07891800940169745,"293":-0.40240114958051715,"294":0.01002794475982349,"295":0.07255186902356961,"296":-0.003869236512199328,"297":-0.07278078662328749,"298":0.04906117036984491,"299":-0.0727415554761739,"300":0.24278274080696838,"301":0.3319414408957291,"302":0.18070398438428165,"303":0.08081728653167856,"304":0.04977320762691236,"305":-0.04253878944392942,"306":0.023328452393856426,"307":0.002908409735778862,"308":-0.1190177008600584,"309":0.25878297200012507,"310":0.3227637602307881,"311":0.2251719857951405,"312":0.02940337028280257,"313":-0.016497170645225167,"314":-0.008874499160824478,"315":-0.0842757350634501,"316":0.08224339233375742,"317":-0.10271493669286533,"318":0.3197160690052983,"319":0.29715302861633397,"320":0.24975947508560525,"321":0.027828243676177134,"322":0.0032766340122598286,"323":-0.10702257758099736,"324":-0.05587106735623601,"325":0.06500189544463823,"326":-0.013321805496861752,"327":0.3752780119569084,"328":0.23954769906327958,"329":0.3713859603555118,"330":-0.10398792866572344,"331":0.03718764218855998,"332":-0.0697038171931208,"333":-0.030661551664885957,"334":0.0634418351390394,"335":0.16281175421237623,"336":0.19479577955679564,"337":-0.144353286845427,"338":-0.0631146661485703,"339":-0.10798686130510353,"340":0.03291143026201143,"341":-0.13729861337071517,"342":0.00907070449128839,"343":-0.07543347587376466,"344":0.09457806115690807,"345":0.28216084217358756,"346":-0.14437550962835613,"347":0.24837700963639683,"348":0.16501334932006254,"349":0.01901834272202297,"350":-0.08032600775493694,"351":0.10850717807446424,"352":0.05560464965960523,"353":0.08242030303295808,"354":0.5978715108153975,"355":-0.08650004298571694,"356":0.3682485387596072,"357":-0.01934640709627776,"358":0.028022706753548027,"359":-0.05730131141860319,"360":0.027225512196275656,"361":0.0898350370848737,"362":-0.03575357451666105,"363":0.3452493095825144,"364":0.7589232919464568,"365":0.44387352909941424,"366":-0.024186471021696108,"367":0.004013320953106017,"368":0.025205889107096285,"369":0.043899240278090994,"370":-0.007665160014849143,"371":-0.0696174660199166,"372":0.06925853175014969,"373":0.700469093671336,"374":0.30669156931864505,"375":-0.019504187525639385,"376":-0.04157710789989413,"377":0.10292593249014624,"378":-0.007405027920458799,"379":0.11581409719229975,"380":0.013617654173153089,"381":0.3491336771477279,"382":0.7442420868252265,"383":0.15561934567623356,"384":-0.1711274437557925,"385":0.025449021841894588,"386":0.01348902197187753,"387":-0.021352005746687455,"388":0.035204033450188826,"389":-0.017974826190946314,"390":0.2440773576488965,"391":0.7262162414709366,"392":0.19269637964578984,"393":-0.09896717485673794,"394":-0.02021170059215961,"395":0.05962809227164117,"396":0.06430966659556898,"397":0.09968673667222391,"398":0.02442740635621332,"399":0.24550498188771422,"400":-0.23624689540852922,"401":0.2784513002467252,"402":-0.14668200768998776,"403":-0.016347338052403487,"404":0.07665114288388947,"405":0.0243157954893844,"406":0.15104723182536375,"407":-0.035923971732860674,"408":0.21678079911578077,"409":-0.20691228336404557,"410":0.23587083730886962,"411":0.01519331662020866,"412":-0.04108981469622111,"413":0.08161180293104411,"414":-0.05758602187372284,"415":0.07427544995776107,"416":0.10074773082043229,"417":0.16694118530766147,"418":-0.0587099509197425,"419":-0.00439185950889357,"420":-0.09747676243667874,"421":-0.07294385181134952,"422":0.06542278422482303,"423":-0.04154330066577927,"424":0.11696371074667469,"425":-0.010540860734542346,"426":-0.0065932204527923135,"427":0.007942634759472354,"428":-0.03700062223848014,"429":-0.0030354082138568193,"430":-0.266425577116703,"431":-0.009489438919600825,"432":0.02379463590233923,"433":-0.03201934605578605,"434":0.012863797425453854,"435":0.010179208240879973,"436":-0.05651677818592134,"437":-0.02774678192964518,"438":0.13751134886714642,"439":-0.10557543761290768,"440":0.0004470525291463231,"441":-0.029219687142527734,"442":-0.034887944452400475,"443":0.0506382393892081,"444":-0.03580739186501409,"445":-0.011132424186847777,"446":-0.0032175053858206136,"447":-0.09807785759063306,"448":0.07523135999188356,"449":0.008753050125933267}},{"sx":1,"sy":1,"depth":450,"w":{"0":0.1201383154502275,"1":-0.1041248591139251,"2":0.00047255453627013017,"3":-0.01320751516322798,"4":-0.01942597219807039,"5":0.02178977529331996,"6":0.003985907984920865,"7":0.007354830829153723,"8":-0.04643057407034138,"9":0.013044264061995475,"10":-0.02852267000108927,"11":0.007077500365362005,"12":0.08683968175068026,"13":-0.04392526296863415,"14":-0.060546285538155255,"15":-0.025556533926851813,"16":0.018168843206717585,"17":-0.0275361346214457,"18":0.016832426847282533,"19":-0.006913105027415324,"20":0.06397877546265066,"21":0.007267517546013998,"22":-0.030951909345944575,"23":-0.08202963135020883,"24":-0.02744344536678772,"25":-0.026461846210189134,"26":-0.026148616121362198,"27":0.0457287237840358,"28":0.04429579453000286,"29":0.08414703082522253,"30":0.08192520815590631,"31":-0.006870170597572622,"32":-0.0037092299147226913,"33":0.002738425767391319,"34":-0.015148086765521833,"35":0.009622141248470446,"36":0.021536502962239853,"37":0.03622664064497434,"38":0.11467272032926254,"39":0.10441430906831103,"40":-0.03769513629878279,"41":-0.03811776793207276,"42":-0.05661866616344062,"43":-0.019827126252229314,"44":-0.011058540853053802,"45":0.014316490783289344,"46":0.004362068485869908,"47":0.053552376388156554,"48":0.07256812297046257,"49":-0.0015483363109419336,"50":0.03768466239395216,"51":-0.0006388647696776829,"52":0.026861209003125015,"53":0.011691422031765167,"54":0.004335450023294899,"55":0.010790974323775734,"56":0.08309900238230267,"57":-0.021136091958097517,"58":0.03368558234582681,"59":0.034567825647980825,"60":0.04506331924542751,"61":0.02507775644818079,"62":0.0327137140868071,"63":0.024942448685450855,"64":0.018345721801488836,"65":0.04751856239094614,"66":0.023545961985710545,"67":-0.01381122710026155,"68":-0.04207698549234524,"69":-0.03450282170936935,"70":-0.0014214144758909247,"71":0.011602892138143606,"72":0.02695765426138417,"73":0.01582719087932159,"74":0.02474923287044744,"75":0.042087386802928894,"76":0.10881982320008751,"77":0.002191914621646056,"78":0.03615061925024512,"79":0.040241920007170924,"80":0.06161250201943913,"81":-0.04763660647682415,"82":-0.08340748161266015,"83":0.06786195535066884,"84":-0.053462434151325476,"85":0.0009508898699907545,"86":-0.0452496461806902,"87":0.033893198111907344,"88":-0.012027154544928819,"89":0.000492805118937009,"90":-0.01742532209227609,"91":-0.164122554179769,"92":-0.026820155273138954,"93":-0.01789539520171639,"94":0.022081035472568667,"95":-0.014056876400778672,"96":0.02062272798915481,"97":0.006306557552646395,"98":0.020000123464660166,"99":0.05320859047965692,"100":-0.11492123888796293,"101":-0.04285270912548407,"102":-0.05011243136267528,"103":0.11593869637459635,"104":0.02761757845835596,"105":0.12746773021212185,"106":-0.010659921865358945,"107":0.03751420085134668,"108":-0.011344034096062987,"109":-0.044444593753365395,"110":0.0314099769287109,"111":-0.008333182454550312,"112":0.009848711850083933,"113":-0.020002722899190868,"114":-0.014985519944736563,"115":-0.061251947159710926,"116":0.016514929101192642,"117":-0.01256842954711589,"118":0.014529863517580358,"119":-0.02179117478583857,"120":0.07810586161645508,"121":0.0176453453347331,"122":-0.010049454084648397,"123":0.019875364550113222,"124":-0.11844601242654962,"125":0.04031823403598523,"126":-0.020349306578406577,"127":-0.05004822120981616,"128":-0.08544546308051251,"129":-0.020086892069624863,"130":0.009946219461449,"131":-0.019845671684615793,"132":-0.032060419172238556,"133":-0.12254061086486494,"134":0.023928024001232298,"135":-0.017270397012858804,"136":-0.04903201345519985,"137":-0.013084573907165404,"138":-0.033391974442064036,"139":0.0024879134863696794,"140":-0.0082407868073859,"141":-0.0896270001584483,"142":-0.09901189333204242,"143":-0.039883931496137115,"144":0.023111478539749902,"145":-0.038389398686042485,"146":-0.025853684270304086,"147":-0.02767767639543638,"148":-0.07854318662495519,"149":0.08131880166470458,"150":0.02291677091250377,"151":-0.03548659264864538,"152":-0.008276597483555834,"153":0.0630086328711232,"154":-0.015198898293067723,"155":0.034211544279867646,"156":-0.064787350713468,"157":-0.004585562785645269,"158":0.040754891042853306,"159":0.004270501227420895,"160":-0.042557226878716006,"161":-0.027404190461283343,"162":0.0757757623496063,"163":0.03380517081776837,"164":0.06244887688308644,"165":0.010098622659303894,"166":-0.03524415316124324,"167":0.07225080035138892,"168":0.044403191816640326,"169":-0.046685350560206285,"170":0.005630579087607134,"171":-0.0374999159584902,"172":0.07164239435487918,"173":0.030280343969635196,"174":-0.03898873780083643,"175":-0.0694358450187235,"176":0.07122746841524923,"177":0.07991968912846531,"178":-0.033402987162994315,"179":0.012079877183522167,"180":-0.03642987504551315,"181":-0.03818345379693237,"182":-0.03610865295016752,"183":-0.04611931624409971,"184":-0.02434170996590914,"185":0.042713803094263376,"186":0.04326344641671395,"187":-0.04097236577360098,"188":-0.002215734353352322,"189":-0.09363728241179531,"190":0.01303708074764161,"191":-0.04637168815074841,"192":-0.06767895075747324,"193":-0.0691659163776645,"194":0.07574771991887687,"195":-0.0009149103402531956,"196":0.0038382731949521804,"197":-0.025046783913398974,"198":-0.04979157937922488,"199":-0.060630312049000566,"200":-0.0014895225891052896,"201":-0.09232685308988928,"202":-0.10429109511823693,"203":0.05908414011108826,"204":-0.028485368373318644,"205":0.02064354823919112,"206":0.01542171604957105,"207":0.011840353976718999,"208":-0.03743921118411148,"209":-0.027264939537418924,"210":-0.03780866523279677,"211":-0.026513699106852497,"212":0.02369130654356372,"213":0.0601374996248985,"214":0.05888177572514249,"215":0.003406995322628871,"216":-0.056530130854741574,"217":0.0313419688154355,"218":-0.03066450729214074,"219":0.03255855406353707,"220":0.02598483446899917,"221":-0.004522679379835383,"222":0.07229702150912727,"223":0.04917199557481468,"224":-0.037406851691704865,"225":-0.03826752050281258,"226":0.042973166195530606,"227":-0.01177402720792263,"228":0.05651610510672325,"229":-0.047034444630314094,"230":0.031979502818131826,"231":0.05258567053901222,"232":-0.00040240838519550954,"233":0.015639449691092763,"234":-0.05001504630859205,"235":0.07899644448326998,"236":0.08473760835266374,"237":0.13783246091204693,"238":0.01453843925434812,"239":-0.05420623378226987,"240":0.062236397749760655,"241":-0.018184953735430782,"242":0.05211857960693915,"243":-0.00015044021143737868,"244":-0.04150214130800937,"245":0.092978277080679,"246":0.041349826873193135,"247":-0.014249845249821749,"248":0.03374034892077746,"249":-0.006239770811209651,"250":0.007916504788141992,"251":-0.010417493204776022,"252":0.028895598752011652,"253":-0.023319736069313684,"254":0.007392360512840479,"255":0.0834915158215685,"256":-0.0396060947357331,"257":0.0635488221770853,"258":0.05008135118662301,"259":-0.03353746393284974,"260":-0.029799394060889963,"261":0.003698587757609828,"262":0.0346312931317365,"263":-0.09495426476195926,"264":0.04281007580645933,"265":0.07081598779246867,"266":-0.0704172359786992,"267":0.004337887942745856,"268":-0.036343352889876224,"269":-0.01586498741278634,"270":0.028615312438910634,"271":-0.03967881724860489,"272":-0.05595566847917525,"273":0.0020082380168766497,"274":0.04177756974302804,"275":-0.1181836687550189,"276":0.012370490119624046,"277":-0.031810688396286514,"278":-0.049339695870896,"279":-0.006424298355919515,"280":0.040749113706761805,"281":-0.07375176885208248,"282":-0.010573146849974195,"283":-0.042434146521965886,"284":-0.22808740682205886,"285":-0.04756555711484555,"286":-0.02017236890062049,"287":-0.06845147109363162,"288":0.0462141348830677,"289":-0.04404672455239743,"290":-0.03508437791748337,"291":-0.11350228155405222,"292":-0.07653568344997101,"293":-0.15734905054717985,"294":-0.007084580644170754,"295":-0.004031364185444367,"296":-0.021307982559622667,"297":-0.05087356156822514,"298":-0.037445823796553764,"299":-0.003193760004333131,"300":-0.1334798728350606,"301":-0.040542619144789196,"302":-0.07572644204651274,"303":0.061093415920800684,"304":0.03337804340309702,"305":-0.011648132987969998,"306":-0.005735747414392525,"307":-0.04042968255856792,"308":0.033174469482180814,"309":-0.03388608528402097,"310":-0.048366868126749986,"311":-0.06945993127154593,"312":0.03562073045974808,"313":0.04237726939055851,"314":0.0044629474260991795,"315":0.03248179269219497,"316":-0.05520698017170287,"317":-0.0656535231592544,"318":0.0034630913593576757,"319":0.09609922839494468,"320":-0.05832907772672259,"321":0.012111407406788942,"322":0.02728638919568959,"323":-0.01197000365122283,"324":-0.0226838762107988,"325":0.03924963330548559,"326":-0.01662866123867786,"327":-0.06400656644406431,"328":0.02781303682481751,"329":-0.03767806676930657,"330":-0.01447604282170488,"331":0.019071680483341083,"332":-0.004855578348750726,"333":0.04984745168100353,"334":0.03941613291503078,"335":-0.013944848462267206,"336":0.013241849909571057,"337":-0.002588843348049141,"338":-0.00531957783687335,"339":-0.08484677088266435,"340":-0.0689482214965104,"341":-0.020288244915563417,"342":0.044553554973193646,"343":0.1406597446213832,"344":0.007524142576668168,"345":-0.09538590300784754,"346":0.0164046963197816,"347":0.027987281336615086,"348":-0.1401253918932918,"349":-0.022172989074356164,"350":-0.0262526493904761,"351":0.029395504896763205,"352":0.08975961701198984,"353":-0.032548232752724525,"354":-0.0956529663437762,"355":0.010395476295636226,"356":0.04646995005720257,"357":-0.018722578008084266,"358":-0.011955766158178416,"359":0.02396079345402431,"360":0.00042731969403101225,"361":0.1206193996389714,"362":-0.009210865340371768,"363":0.006958392227793996,"364":0.005323536200978102,"365":-0.022515003149126276,"366":-0.01802772531120625,"367":-0.009648692769368406,"368":0.0057322974881220705,"369":0.042530767984693275,"370":0.04127241151324815,"371":-0.05684966691800514,"372":0.056328909791168155,"373":-0.013566550248146741,"374":-0.022040476717460133,"375":0.02076226924010003,"376":0.055994975899977546,"377":0.07140841169791204,"378":0.023533031712308198,"379":0.1043080020018982,"380":-0.034125354676289785,"381":0.06511061477483801,"382":0.0007435304200558747,"383":-0.0259436343077774,"384":0.01412302443687109,"385":0.05305866072218095,"386":0.03599952707108556,"387":-0.08559893824878619,"388":0.1092916181312529,"389":0.04502323173779907,"390":0.025900666559783975,"391":0.004468186771139666,"392":0.04218141836862513,"393":-0.08512947951198035,"394":0.05601373078100039,"395":-0.00970968897435215,"396":-0.01691260453916992,"397":-0.06866750430656153,"398":-0.030469602923466683,"399":-0.015830363558050668,"400":0.0068665694671256475,"401":0.06236406257968637,"402":-0.05860559509462938,"403":0.003002036415706121,"404":0.0004195387421469569,"405":-0.03501981460591546,"406":-0.040074224222668944,"407":0.055070015568969344,"408":0.025225774686129743,"409":-0.014397170873094282,"410":0.08655846347544649,"411":-0.015148241645230586,"412":0.059794261971609856,"413":-0.049200035108283545,"414":-0.006753946237890147,"415":-0.046157205235999706,"416":0.08369301045285213,"417":-0.043187438191914236,"418":-0.011189972066351467,"419":-0.03967789680618378,"420":-0.048674264350416586,"421":0.06000743547013317,"422":-0.031121212231034943,"423":-0.01713689735346278,"424":-0.03777988405757735,"425":-0.06650654100102352,"426":0.037215062690768866,"427":0.04423904862300551,"428":-0.015602713298755228,"429":0.010253552042756736,"430":0.0051579056309312785,"431":-0.010574307192964993,"432":-0.03311856995733087,"433":-0.0046545570205468526,"434":-0.06871366271722136,"435":0.012467382577988403,"436":0.0019716784578891144,"437":-0.017678227311658218,"438":0.020792919284290272,"439":-0.01507177547651825,"440":0.029505023012198792,"441":0.016503478399904,"442":0.035880759822789945,"443":-0.06929355481330059,"444":-0.025367434974347756,"445":0.05292541383073673,"446":0.010854719987742754,"447":-0.04975891974306453,"448":-0.04005133047821133,"449":0.04989151568250371}},{"sx":1,"sy":1,"depth":450,"w":{"0":-0.07750388729830068,"1":-0.01316140607579398,"2":-0.19414241091182965,"3":0.08003067302816073,"4":0.11041352318776854,"5":0.17809618656038237,"6":-0.0015943535258549789,"7":-0.09460541993284612,"8":-0.1918618135734693,"9":0.11183123869910222,"10":-0.010468429143984492,"11":-0.004553323226668224,"12":-0.0020383599151925667,"13":-0.08585477771717714,"14":0.023216893945828727,"15":0.014053878829157583,"16":0.034026739806757134,"17":-0.009673006255282265,"18":-0.09715999256263926,"19":0.004915918452157066,"20":0.0021536965815144933,"21":0.03209627455238463,"22":-0.006800993041107865,"23":0.024028342462031116,"24":-0.0012728267023689934,"25":0.046538571996354895,"26":-0.033644195046131545,"27":-0.07284579247405533,"28":-0.016056641421641798,"29":-0.11504962850070637,"30":-0.10624123523961668,"31":0.017571679918118345,"32":-0.0004659827603169938,"33":-0.07684081012074523,"34":0.007022253665199346,"35":0.07312127280413641,"36":-0.0530750740700975,"37":0.06006611987775707,"38":0.033998715265971514,"39":0.05670906321712556,"40":0.002239108899162741,"41":-0.013433950742568833,"42":0.03533779367801105,"43":0.04205845548323256,"44":-0.16159278299529364,"45":-0.14274259508867193,"46":-0.06565408525951182,"47":-0.07912005676236693,"48":0.018853192949587913,"49":0.006835503433692261,"50":0.09476431374895437,"51":0.08217352768205852,"52":-0.1686655308972595,"53":-0.07498507610548234,"54":-0.08377266411803977,"55":0.011947504446763837,"56":-0.001154846943354064,"57":0.06575017452647078,"58":0.04323720788328444,"59":0.1303367628567992,"60":-0.053687747277323526,"61":0.06910661229142162,"62":-0.02827294642016412,"63":-0.1315915293736444,"64":-0.005827935946965308,"65":-0.07232351021986276,"66":-0.04454612625177982,"67":0.07675880386297192,"68":0.12565451501085395,"69":0.08639403049627425,"70":-0.06706558350013561,"71":0.14982200242558397,"72":-0.1695015717791127,"73":-0.012339786730635006,"74":-0.05214325792673626,"75":-0.016209973321737015,"76":-0.17896778652174733,"77":-0.06603284102278684,"78":0.035889212665344,"79":0.020910336751341706,"80":0.04357424391416775,"81":0.010311722178416053,"82":-0.00047404896142974324,"83":0.021762023741780233,"84":0.01902513187506088,"85":0.07552827617444514,"86":0.10722825972314202,"87":-0.021022452478449843,"88":-0.02271097627040887,"89":0.0367172713885739,"90":0.028085761064551063,"91":0.033827808353441374,"92":-0.10373317176522477,"93":0.14376778321628375,"94":0.003006932521903379,"95":0.15493387359907426,"96":0.005264342032481555,"97":-0.044646390045257486,"98":0.029227022623076335,"99":-0.05417377351611437,"100":0.01962416556570829,"101":-0.0212199888387584,"102":-0.038248356445448925,"103":0.024581713627377013,"104":-0.04678816909046394,"105":0.01653124545462805,"106":0.16131495673154037,"107":-0.06911878088628233,"108":0.05737046102655776,"109":0.07927549117266382,"110":0.023018779653724546,"111":-0.040468456340396614,"112":-0.028049659021833526,"113":0.10186631885512172,"114":0.09080923690553233,"115":-0.038379602376767685,"116":-0.026262037578092708,"117":0.12018766663129463,"118":-0.04665923441825406,"119":0.04336427040711277,"120":-0.026388363485599448,"121":0.00838377638955162,"122":0.041612311267516924,"123":-0.02039898394177028,"124":0.06703751729033106,"125":0.03842181468085874,"126":0.01983797358685044,"127":0.09326032520632116,"128":0.044124556121465944,"129":0.0015654145984688595,"130":0.10202740234186337,"131":0.09850549316830412,"132":0.010802082132649765,"133":-0.014364849850611686,"134":-0.08651280967789053,"135":-0.03819503147155101,"136":-0.12836274607144446,"137":-0.06032599519150324,"138":-0.009283703545612509,"139":-0.03981405873889588,"140":0.022057862357097457,"141":0.08300880350536949,"142":-0.038431305804639354,"143":-0.10092104755950497,"144":0.05372977669841081,"145":-0.047857743557430533,"146":0.05235785669666334,"147":0.0567594705782157,"148":-0.03817145402823055,"149":0.07469727347283842,"150":0.023441492997008415,"151":-0.02845794882699755,"152":0.19921522861159585,"153":0.04314057438398856,"154":0.0015973753882913728,"155":0.06505613924401657,"156":0.08872887591789053,"157":0.1027342307869151,"158":-0.033685942120182596,"159":-0.0029169103640613375,"160":0.04094731966533141,"161":0.06550195879007398,"162":-0.012310717787444648,"163":-0.13635879192334477,"164":-0.041852683892138615,"165":0.11136264577743094,"166":0.09542151519820383,"167":-0.10237348448680154,"168":0.052598500944811825,"169":0.12226356457637283,"170":-0.043331299118350305,"171":0.015956007036020414,"172":-0.009148342703299076,"173":0.011773670837664438,"174":-0.0686207651199817,"175":-0.0960251976482916,"176":0.009813009997751344,"177":0.03330253318932227,"178":0.08728612033243097,"179":-0.009073513224885517,"180":0.04266055925169121,"181":0.055370699449277236,"182":-0.13935491886998605,"183":0.10915883448671573,"184":0.025701783220534007,"185":0.07312797554706078,"186":-0.10386605931843887,"187":-0.027095400824715933,"188":-0.05006194917298025,"189":-0.04814498187280231,"190":0.034036231789266444,"191":0.09316388285714669,"192":0.29006199913295966,"193":-0.016823564775032714,"194":-0.03224941253725676,"195":0.10490770962392217,"196":-0.11116524067223113,"197":0.039324248960309956,"198":-0.06583477082622331,"199":-0.11338402929249224,"200":0.08226708988864552,"201":0.21117173416733445,"202":0.03600792114016857,"203":-0.031230243790950244,"204":0.043862045062430646,"205":0.08831124497674744,"206":0.11393409759683946,"207":0.03829180409267057,"208":-0.003091705184468017,"209":0.03283329954649778,"210":0.19391285303657343,"211":0.06493810904825394,"212":0.030148463889507076,"213":-0.04327487571737081,"214":-0.0900119021264922,"215":0.009540855225469469,"216":-0.008387834792742513,"217":-0.013052732940887588,"218":-0.014977569160883171,"219":0.23994631962569443,"220":-0.11652462242734979,"221":-0.01531973236353193,"222":0.057867121481885116,"223":0.05758870115486968,"224":0.02045886065111082,"225":0.1522708117813056,"226":-0.11165928538793868,"227":0.05576332202233228,"228":0.3463498435587199,"229":-0.21961251814053748,"230":-0.11189888928005515,"231":-0.045270859800184006,"232":0.06416654872179915,"233":-0.08289237510467201,"234":0.031806798457376,"235":-0.009422512253513534,"236":0.060959290070678344,"237":0.3926522458112647,"238":-0.11955626149197911,"239":0.009614317647237275,"240":-0.02142047612309464,"241":-0.015702308964276067,"242":0.0583439033384712,"243":-0.08892811194282832,"244":0.05693898561815415,"245":0.07310751710419056,"246":0.4525466093849446,"247":-0.14368581520681695,"248":-0.012809493288084055,"249":0.04896290205679848,"250":-0.05820704251389063,"251":-0.045320412240414394,"252":0.015789047668125562,"253":0.00968836448687767,"254":0.05693233052613931,"255":0.16799382865123014,"256":-0.07964198491614623,"257":0.00864063518941418,"258":-0.03922700773423738,"259":-0.02426184366969602,"260":-0.09951440967868595,"261":0.04966348650804889,"262":0.01079182286043731,"263":0.07109249110865931,"264":0.2909562878127261,"265":-0.29502052163311004,"266":-0.17172338402916945,"267":-0.04230959552603894,"268":0.009747560881259698,"269":-0.1393639180417611,"270":-0.022296560534595215,"271":-0.10193381198103461,"272":-0.03013044337004314,"273":0.2931402630836596,"274":-0.35270666231884845,"275":-0.09648738708092151,"276":-0.12304755088143654,"277":0.01578880693408604,"278":-0.13484897848516747,"279":0.06489236305349187,"280":-0.03773149590863196,"281":0.06555243591672856,"282":0.35237152932090193,"283":-0.3540274364281688,"284":-0.026122813964254782,"285":-0.051535586153518734,"286":-0.020176034118020075,"287":0.07549055097368347,"288":-0.08041721499689018,"289":-0.09988381775250853,"290":-0.03551244480417753,"291":0.38183638970238715,"292":-0.297567260697508,"293":-0.07546495565601578,"294":0.057449766064996195,"295":0.03955651147670999,"296":0.04557970951404326,"297":-0.06345259136244877,"298":-0.003120622733400644,"299":-0.02585197032782772,"300":0.2221844459214413,"301":-0.31109218825725377,"302":-0.07116857759524034,"303":-0.11142808720859297,"304":0.0010108323590429804,"305":0.0046620056578062395,"306":0.028470293146308022,"307":0.07647304897495635,"308":-0.010502094332842236,"309":0.2861123586807635,"310":-0.3173937698299986,"311":-0.1523508448303526,"312":-0.022701115710662783,"313":-0.030398561053898494,"314":-0.10807637284895073,"315":0.1442041703492972,"316":-0.05497523882670982,"317":-0.03921505193676016,"318":0.3526635882325281,"319":-0.15960316454268314,"320":-0.100992597502079,"321":-0.15880184686534127,"322":-0.10290667958314839,"323":-0.12756556998163357,"324":0.05672718355648455,"325":-0.025278736274386884,"326":0.0647233284569936,"327":0.6701611877448947,"328":-0.28678360255849156,"329":-0.15301193789038467,"330":-0.01281863629803046,"331":-0.01564149673803472,"332":-0.08100604711146617,"333":-0.10108001087639022,"334":0.029285272014733188,"335":0.011761972398670873,"336":0.2906298379912183,"337":-0.10208790804245017,"338":-0.02204900858224996,"339":0.11974181048414771,"340":0.019491526917856116,"341":-0.045143357793806606,"342":0.051759653906854226,"343":-0.031159468912524205,"344":0.038603160690955186,"345":0.44595714382071355,"346":-0.6125108610742832,"347":-0.09487748685632813,"348":0.0059797125395140895,"349":-0.07443684558807377,"350":-0.02471859330574798,"351":0.059998534793110694,"352":-0.01874790342062296,"353":-0.03399507102886174,"354":0.49424941196916833,"355":-0.611019319652365,"356":-0.0714171892988355,"357":-0.01939563701936237,"358":-0.04560893286487684,"359":-0.023476796330577827,"360":0.08716740215155544,"361":-0.19872048032026735,"362":0.07663842440796183,"363":0.33526650881807646,"364":0.1321723515367501,"365":-0.022098371658014062,"366":-0.054999176806119224,"367":-0.1160271619765934,"368":0.004776264172779746,"369":-0.057036647386721595,"370":0.031235219806541398,"371":-0.02887183144042475,"372":0.21530639413500594,"373":0.18152941019086752,"374":-0.004806350668386477,"375":0.0079986882568611,"376":-0.03458969208992181,"377":-0.004965257926729663,"378":-0.17584342953133902,"379":-0.04820766856353561,"380":-0.029406527089324737,"381":0.27551652849994357,"382":0.17420954055591062,"383":-0.10239978363701875,"384":0.01758978699495411,"385":-0.049204215610787076,"386":0.09509957951112565,"387":0.041837496205975516,"388":-0.07208056839353283,"389":-0.025252306341630715,"390":0.46540712694340336,"391":0.1813955286667101,"392":-0.06396583989104969,"393":-0.04100335518068389,"394":-0.04971260671814933,"395":0.0018780266930143227,"396":0.030906208455619383,"397":0.0026974091959648277,"398":0.027083414206242624,"399":0.05278081790881357,"400":-0.6296035154021079,"401":-0.03526102688224935,"402":0.012417966673308273,"403":0.08427867784294757,"404":-0.11903935203570448,"405":-0.07162494497058897,"406":0.06900458345911449,"407":0.06737615516539758,"408":0.05671084007399196,"409":-0.5889571803416225,"410":-0.007139574066026806,"411":-0.029818768968645694,"412":-0.03483934536307182,"413":0.04336494375273084,"414":-0.11863543884692385,"415":0.053304151460531336,"416":-0.05405384774107667,"417":-0.03559125897839588,"418":-0.433613181851268,"419":0.05493109421919546,"420":0.025644162752299044,"421":-0.07445952434576072,"422":0.11685992905336937,"423":-0.05463379978625522,"424":0.000743912378549813,"425":0.15109922830052055,"426":0.021973050933186695,"427":0.025232516109306692,"428":-0.054087127882645664,"429":0.03636686108878593,"430":0.03842568865489349,"431":-0.0021926984515849885,"432":0.03754817710202436,"433":-0.11042440616705046,"434":-0.047641471617557336,"435":0.07831660226836398,"436":0.04503550567611776,"437":-0.03722946395926375,"438":0.010610983183214602,"439":-0.0873574849116927,"440":-0.056465708259372985,"441":0.024114868672636076,"442":0.1150948307734164,"443":0.05583291175873636,"444":-0.1488788765961865,"445":-0.13589769544641483,"446":0.13785336097043058,"447":0.00017469638915543255,"448":0.07865302344466965,"449":-0.0693252199768764}},{"sx":1,"sy":1,"depth":450,"w":{"0":-0.09058538952733411,"1":0.10650616626714907,"2":0.02320797643886004,"3":0.008623039899714824,"4":-0.02079759867520544,"5":0.11713929422623502,"6":-0.06871070483716134,"7":-0.04717841351108429,"8":0.011728554148346896,"9":0.012954392124137373,"10":-0.03553248565634394,"11":-0.049814630659415673,"12":0.030910028422255178,"13":-0.022542510348087314,"14":0.05966899402084546,"15":-0.06576460136399102,"16":-0.05263697796095337,"17":0.019676502754030472,"18":0.0016234410515266993,"19":-0.0023396623077110447,"20":0.0021453312835926896,"21":0.014067542435397014,"22":-0.053529233796716896,"23":0.027677466044830047,"24":-0.040722754028604057,"25":0.00015726456081504512,"26":0.0072394893644108895,"27":0.07515529360723279,"28":-0.04101997115562583,"29":0.03733062475623544,"30":-0.11650814405717859,"31":0.011970252809058026,"32":0.03153020720487951,"33":0.01987373102524134,"34":-0.06199205165987106,"35":0.02403341985171039,"36":-0.045215972568293905,"37":0.005558590449228354,"38":0.10355768900438235,"39":-0.008429564303124694,"40":-0.023781265387748052,"41":0.14982126664875672,"42":-0.04092691175822292,"43":-0.06403356789131585,"44":-0.016763121309578317,"45":-0.024970654352100753,"46":0.03567057924184613,"47":0.04576065791293261,"48":0.03184957614798574,"49":-0.03741743205215063,"50":0.07321889990047133,"51":-0.15476709522207868,"52":0.04425991837982384,"53":0.024662711906101458,"54":-0.03619265294175873,"55":0.06235306782743314,"56":-0.00785079638271386,"57":-0.04449774309288824,"58":0.048524579822694903,"59":0.057790226603727714,"60":-0.047522222956749655,"61":-0.009369351028177564,"62":0.013397015436796398,"63":0.057469973741789235,"64":0.04465082261288595,"65":-0.015333934334384812,"66":0.05515226105957013,"67":0.053611266945157394,"68":-0.09784118168794151,"69":0.008099786333174968,"70":-0.0703145274541133,"71":0.00042952976757116093,"72":0.06913672608232874,"73":-0.017288393170373787,"74":0.11081246369952322,"75":0.008386929374801205,"76":-0.11336298100749252,"77":-0.05035758705579397,"78":-0.0745452535279929,"79":0.0018657747634609459,"80":-0.002531141487971547,"81":0.04550921652640182,"82":0.06897822535581224,"83":0.10447778256021233,"84":-0.05067707134565726,"85":-0.003813571478111588,"86":0.07337234208181795,"87":0.0408682537060765,"88":-0.1313088789761695,"89":0.012459474585467633,"90":0.054562162905547926,"91":-0.024062297207329972,"92":-0.04794511395329386,"93":-0.06688239928392019,"94":-0.07758370936896462,"95":0.00445039419660606,"96":-0.022866852930663005,"97":-0.008205095090657685,"98":-0.013201764595532543,"99":0.05486800594828002,"100":-0.009450570145135962,"101":0.006217092801204276,"102":-0.1733147402431143,"103":0.07558308286760144,"104":0.028937244385064988,"105":0.07178368392014163,"106":0.027796134437198094,"107":0.02582196700894958,"108":0.005022525139694544,"109":0.12805555837145136,"110":0.03376303253146992,"111":-0.017661551297188532,"112":-0.01697636786261228,"113":0.023203669905714916,"114":0.10025388875490909,"115":0.04614263628288182,"116":0.003953861079419589,"117":0.010603559538063795,"118":0.025684701368606976,"119":-0.06028397537683879,"120":-0.10960476629873138,"121":-0.098876276642663,"122":-0.08995736424354232,"123":0.08630538070073301,"124":0.05611233737278574,"125":0.020375859061996925,"126":0.028626778062612167,"127":0.03994671986116037,"128":0.10675169706950205,"129":-0.0711071676568776,"130":0.0561596254975659,"131":0.06529677834442085,"132":0.04400473509096715,"133":0.012502746026229826,"134":0.007088961832470555,"135":0.1467689892229694,"136":0.12937889094644092,"137":-0.04886257102772054,"138":-0.01767888823454483,"139":-0.18809052261633272,"140":0.04915382445782058,"141":-0.01787296183301147,"142":0.08213012869913698,"143":-0.009921497073951353,"144":0.00962707305054323,"145":-0.05687038828170167,"146":-0.10708368916910818,"147":-0.15206083787417268,"148":-0.0888515151527164,"149":-0.1128122839223656,"150":0.028547906118871324,"151":-0.03844164656833032,"152":0.009784293295422812,"153":0.061909059165599196,"154":0.12819308950388705,"155":0.020141302893678308,"156":-0.08515580557499858,"157":0.04197841887023293,"158":-0.05705974474424019,"159":0.03700389458153062,"160":-0.0192124456413944,"161":0.018036327192011453,"162":0.09014385372826056,"163":0.20752826372787372,"164":0.048516788811820755,"165":-0.051488803811589906,"166":-0.07167306492599708,"167":-0.006125574429061692,"168":0.0853082564681811,"169":-0.1026531353331183,"170":0.006368163624520812,"171":-0.1221104761644585,"172":-0.04384103419276085,"173":-0.005940699789670293,"174":-0.10481106499936894,"175":-0.05226575634765737,"176":-0.0532838385217163,"177":-0.038031591985652854,"178":-0.06658271597367581,"179":0.031170438717439793,"180":0.09946743340610512,"181":-0.013326919717212726,"182":0.057111368209749123,"183":-0.03765308846226031,"184":-0.0988705783830192,"185":-0.029424887634191387,"186":0.003632579874076871,"187":-0.062442865413135616,"188":0.013103688158351296,"189":-0.008461322033315448,"190":0.07859324795236156,"191":-0.08481145313599639,"192":-0.1356739350899998,"193":-0.09761294352226439,"194":0.03309555461951337,"195":-0.02209422478769106,"196":-0.07461464035273362,"197":0.008889518052740271,"198":0.004615090089650024,"199":0.05504383639677551,"200":0.10255774024697509,"201":-0.1385260494138057,"202":-0.02042375933132602,"203":-0.1640890877631507,"204":-0.07102731334306595,"205":-0.051785511560074146,"206":0.03512368263265056,"207":0.04136193729515232,"208":0.0047868053573034055,"209":0.047525936843383444,"210":-0.1456830317736487,"211":0.00783477449391474,"212":-0.030491901738387162,"213":-0.04137427879580781,"214":-0.08528445376462958,"215":-0.006518120267140836,"216":0.004115988515579231,"217":0.07143973675003729,"218":0.08648957764422377,"219":-0.1887850715719973,"220":-0.15468896514381214,"221":-0.001684960556213767,"222":-0.01369289797810988,"223":-0.0340907468275996,"224":0.0036428840443509625,"225":0.04316513864413648,"226":0.04873123337530906,"227":0.10720926355564069,"228":-0.10428348176558286,"229":-0.1417200086015042,"230":-0.03841836362186652,"231":-0.07697087588296721,"232":0.05271997212777682,"233":-0.022693728915293074,"234":-0.040707174826535956,"235":0.10195178236322258,"236":0.030528289939168098,"237":-0.07544620947691558,"238":-0.05647552144429777,"239":0.024019091504329494,"240":-0.04375349050477701,"241":0.08557138521315226,"242":-0.014164528175482496,"243":0.0142193899206496,"244":0.06521878885488117,"245":0.25315494998904603,"246":-0.15160556976590475,"247":-0.12639180661204033,"248":-0.13281809529386182,"249":-0.069529222134023,"250":0.09877863221977878,"251":0.00507430869967126,"252":-0.06784286555312745,"253":0.027124256701348305,"254":0.27865740551613183,"255":0.02092963924436431,"256":-0.20006873072480108,"257":0.054950202814905036,"258":-0.04772184826909057,"259":-0.027580618679639596,"260":0.009144943388448073,"261":-0.07361784390154019,"262":0.1578466671189748,"263":0.20705215277840502,"264":0.037599843909387774,"265":-0.20609026642590564,"266":-0.10539954641630482,"267":-0.05411162298859085,"268":-0.06524489059512117,"269":0.018984559413168272,"270":-0.013012041080777135,"271":0.004703233135397334,"272":0.06693117601784977,"273":0.0648747860407982,"274":-0.25761603645011877,"275":0.025384409268322212,"276":0.01448569545482718,"277":0.05995410346598334,"278":0.008842410794627376,"279":-0.04806729206011909,"280":0.14259547803012707,"281":0.19737437880182104,"282":0.23825454719734698,"283":-0.17964223444623828,"284":0.06012688881014093,"285":0.017330771730319484,"286":0.024324282886940173,"287":-0.01428616498485849,"288":0.014784216173848053,"289":0.04800073861513506,"290":0.20683664664858603,"291":0.20022665274795412,"292":-0.12953210921155844,"293":-0.1756631532604719,"294":-0.06753293155250122,"295":0.11376441143227839,"296":0.014782964414282868,"297":0.009513864152076607,"298":0.08174248589052882,"299":0.1843088170011504,"300":0.2727408479010251,"301":-0.07570438073541748,"302":-0.06744018345462281,"303":0.07157882389503528,"304":0.22123518314610574,"305":0.027797690155758357,"306":-0.05542972191268043,"307":-0.005009472713230941,"308":0.10134351996461384,"309":0.10952595094647495,"310":-0.020202132194860223,"311":-0.11856695309183228,"312":0.06441231994953621,"313":0.06086125208015526,"314":0.005486093916448173,"315":-0.12391830569197457,"316":0.0482093716373216,"317":0.0915038011773272,"318":0.24025130932593455,"319":0.09101796588202406,"320":-0.08036716286724073,"321":0.05174366207413866,"322":-0.03350492377003451,"323":0.04064173192588387,"324":0.13345405877366295,"325":0.07359955251086915,"326":-0.041476601340492386,"327":0.1732044549066153,"328":0.11311943030742612,"329":-0.133147031371091,"330":0.04132725987244477,"331":-0.008898529757332886,"332":0.018884576983431132,"333":0.0575154592612316,"334":-0.03958383100665376,"335":0.10340478470936075,"336":0.1762376492225951,"337":0.0017813419909483595,"338":0.0554504055706848,"339":0.013035582707268047,"340":-0.06824057025033485,"341":0.007008691583920561,"342":-0.019150538281636976,"343":-0.15387047955587202,"344":0.06522350377475664,"345":0.11861595326315137,"346":-0.18942638808940437,"347":-0.06748649524293049,"348":-0.037684283563261055,"349":-0.09313535055239433,"350":-0.013743326369022072,"351":-0.05161509604540076,"352":0.0056944812755832215,"353":-0.02444934346653575,"354":0.12794895135980136,"355":-0.18061872844136784,"356":-0.11855351535324424,"357":-0.04088055703416151,"358":0.023366815365736822,"359":0.01241326952017133,"360":-0.055323866776037366,"361":0.07942940121131221,"362":-0.11632252525564245,"363":-0.09927727491572558,"364":0.05616752451106827,"365":0.08127215421563203,"366":0.05789324813747422,"367":-0.010498214328814228,"368":0.01051054515648649,"369":-0.07878022387721191,"370":-0.06057995163216671,"371":0.0029145242293721705,"372":-0.0011185645451192217,"373":0.02554362236893328,"374":-0.06449180135902209,"375":-0.009055292895265946,"376":0.0035016521258498597,"377":-0.029103283420507768,"378":0.05058118515991346,"379":0.07220696049361498,"380":-0.03487782429630939,"381":0.024486114609283818,"382":0.040911276572767094,"383":0.029165178519742326,"384":-0.04745245194712757,"385":0.02149728208739697,"386":0.03051811773096852,"387":-0.008976110040008138,"388":-0.09017620511428201,"389":-0.028324247417625528,"390":-0.14827377192714433,"391":0.036973360837098665,"392":0.18584717558403793,"393":-0.031137459281516452,"394":0.05704779911018172,"395":0.029312789947609677,"396":-0.11406203322823205,"397":-0.0642937892537259,"398":0.04463114205887653,"399":0.007010986900873029,"400":-0.21934634588102217,"401":0.049182930830287984,"402":-0.04467033344545501,"403":0.014602157845765072,"404":0.023327883597606604,"405":-0.07028487062879887,"406":0.01201817502352266,"407":-0.06680964854692877,"408":-0.07920853443616463,"409":-0.1820194188143407,"410":-0.06296905302481248,"411":-0.0640895696459017,"412":0.019415156318992752,"413":-0.005615494688497084,"414":0.10692936750203333,"415":0.06245158526101171,"416":-0.06064567198840797,"417":-0.12641067749699825,"418":-0.15897200024943245,"419":0.02491404605567614,"420":0.014502075408952118,"421":0.0776722641335478,"422":0.014249789855744713,"423":0.11874782699090691,"424":-0.1008795688372688,"425":-0.10624057970290947,"426":-0.0655292860292676,"427":0.04399760951483464,"428":-0.1052886188659723,"429":0.04663284224913879,"430":0.09965964254966073,"431":-0.007144934472480879,"432":-0.02580400657041445,"433":0.007185082838462083,"434":0.11941723632988012,"435":-0.11183644228710672,"436":-0.18094212604603327,"437":0.11066031812013005,"438":0.07564872847995498,"439":0.09829762204023065,"440":0.00739317476281482,"441":0.047337818003558414,"442":-0.0076258273889467185,"443":-0.02490313896572066,"444":-0.0023421061356079607,"445":0.008267945741598672,"446":0.16412657920873122,"447":0.08016170208260309,"448":0.052315684012859444,"449":0.024707706856579827}},{"sx":1,"sy":1,"depth":450,"w":{"0":-0.07378516695321802,"1":-0.01011063089408355,"2":0.12145189827615609,"3":-0.0064340069171922275,"4":-0.04508180406161542,"5":-0.07553157718930656,"6":-0.0393776313349973,"7":0.08175179985214935,"8":-0.1880029555642157,"9":-0.014945690913679621,"10":0.03292949765782756,"11":-0.015495100014356217,"12":0.037208772778714934,"13":-0.14359250996537304,"14":-0.06902002337415913,"15":-0.04111167372408185,"16":-0.006827932819283107,"17":-0.07019342171991941,"18":0.021939936123190697,"19":-0.029381776252734023,"20":0.08388390063497125,"21":-0.001978274467761681,"22":-0.03581777094492199,"23":0.01143323143556705,"24":0.03783495861006906,"25":-0.05972933987584376,"26":-0.06413868807686013,"27":-0.11062904171717354,"28":0.037748128239110605,"29":0.11327502181551978,"30":-0.03478721131083902,"31":0.0004266554781205979,"32":-0.14319519704814898,"33":-0.014204035508781953,"34":0.14002080850588475,"35":0.1403178762721039,"36":0.11908862651186396,"37":0.13986166738097244,"38":0.12260360788533256,"39":0.0499643077305617,"40":-0.06355960889466278,"41":0.08212271942123635,"42":-0.12193145066355623,"43":-0.04734770865826879,"44":0.02256478939377565,"45":-0.06522648296055185,"46":-0.0012618501099623792,"47":-0.21524849763755252,"48":-0.09330328473702566,"49":0.08033365652914279,"50":0.02793814673797905,"51":0.010327535024567866,"52":0.03822744069414544,"53":0.013745571582791943,"54":0.05148519880064714,"55":0.07845522244140427,"56":-0.08557447177414682,"57":0.11870077133920176,"58":-0.006686720015081965,"59":0.15297949080012538,"60":0.11143419477400446,"61":-0.05671728905023971,"62":0.0622712898234634,"63":0.04894594370690932,"64":0.0189710867096183,"65":-0.058070113816615816,"66":0.1316866010058479,"67":0.013991413685495238,"68":0.04686673934868531,"69":0.06587801017780372,"70":-0.09616242691276677,"71":-0.05003744242615049,"72":-0.12367148470623188,"73":0.09775474865068819,"74":-0.013252310864080533,"75":0.07911455057849788,"76":-0.09136897298307556,"77":0.04231806993711432,"78":0.08671128245359681,"79":0.03591645074712288,"80":0.034983328603485256,"81":-0.07063369409471022,"82":0.01922919614235775,"83":0.03533364502384364,"84":0.07097907674853762,"85":-0.09181406747754,"86":-0.0046123962908166715,"87":-0.0567830195312482,"88":-0.10309365492633041,"89":0.03782723649299477,"90":-0.04193414805881987,"91":0.011921575386037747,"92":-0.06238694032384524,"93":0.08912824812721575,"94":-0.003868699785998147,"95":-0.005522157135803484,"96":0.022034435003834143,"97":-0.07632714273602377,"98":-0.059119017287690256,"99":-0.056630991085946644,"100":0.04106217947995891,"101":-0.14133055086448826,"102":0.05432889091766301,"103":-0.0497951682263421,"104":0.010849397820284722,"105":-0.04390926707456542,"106":0.05884864668863988,"107":-0.15087846222429446,"108":-0.03913863923918401,"109":0.022660154738147358,"110":0.004757964511311218,"111":-0.03956768154719914,"112":-0.023543084243469025,"113":-0.038987243618617946,"114":0.04083830665621439,"115":-0.005706341522844648,"116":-0.0946243937766254,"117":-0.0021852070799141697,"118":-0.06055202333547468,"119":0.11077755651832728,"120":0.046489028281089924,"121":-0.01574253826922475,"122":-0.06383839798895896,"123":0.017460110495946316,"124":-0.0564980566927749,"125":-0.03785299811598138,"126":0.02995674639621029,"127":-0.18680832169623834,"128":-0.01282487829159504,"129":-0.012692568657994181,"130":-0.20314859354152234,"131":-0.09532987328996166,"132":-0.1084209927956329,"133":0.02677362188260372,"134":-0.047010677093187424,"135":-0.06562890401250406,"136":-0.054297561800529415,"137":-0.03994599634247965,"138":-0.15095469651092555,"139":-0.08035071816228496,"140":-0.05816123753301889,"141":-0.040945781887579004,"142":-0.01917278556552883,"143":-0.04366455398070468,"144":0.02336383971188835,"145":-0.14216267374590172,"146":0.08397613260399746,"147":0.011213812135269645,"148":-0.056679017340895546,"149":-0.023533230851058733,"150":-0.10028753449562429,"151":-0.0440607791542078,"152":0.054448294463032246,"153":0.11209376205497426,"154":-0.03762486904571256,"155":-0.11138195600129015,"156":-0.08041063454746944,"157":-0.15965601337441088,"158":0.04052668963853157,"159":0.053881766816594984,"160":-0.032707026178213375,"161":-0.014380869124009883,"162":0.042673311616925155,"163":0.13696627437242204,"164":-0.06343305709556936,"165":-0.0009712964812454368,"166":-0.034438733958437585,"167":-0.05926449307012817,"168":-0.005597605042745496,"169":-0.0158176393554382,"170":0.09685456153347236,"171":0.1388240679201735,"172":0.001634636004916616,"173":0.010772323141162917,"174":-0.026061707217153236,"175":-0.011628258183151923,"176":-0.06117916018113203,"177":-0.12051810567754646,"178":0.05043412850152095,"179":0.13727530213180228,"180":0.2057517338228613,"181":-0.13534237421880593,"182":-0.052197569153678625,"183":-0.10025069803143691,"184":-0.054331672224548724,"185":-0.18907846024961042,"186":-0.04343575115755071,"187":0.022745853956458808,"188":-0.04184071080962315,"189":0.127405966902699,"190":-0.15199643413459396,"191":0.06139060451769133,"192":-0.04506608741355599,"193":-0.149261817941463,"194":-0.005070439668584839,"195":0.02818640078944976,"196":0.015115999170477682,"197":0.0047561770379991935,"198":-0.045551891795145884,"199":-0.14774558785343067,"200":0.003679761902163533,"201":-0.16208177424658682,"202":-0.044767071266367614,"203":-0.04621568517244349,"204":0.019932094721024394,"205":0.06453719216990603,"206":-0.06915507403643535,"207":-0.048122005071272095,"208":-0.03695115664866028,"209":0.057771695292720034,"210":-0.16798175321457748,"211":-0.05497518031529627,"212":-0.04221079838708315,"213":0.07843901600216885,"214":-0.07385928723458429,"215":0.05441753742914705,"216":-0.13519308972907274,"217":0.02932045693225567,"218":-0.09973198685965504,"219":-0.048650233268990484,"220":-0.12766415833054587,"221":0.10533379007601713,"222":0.06539507588518399,"223":0.024357932544350144,"224":-0.038488325521781504,"225":-0.0709583087769816,"226":-0.040598179735772726,"227":-0.1344775186220015,"228":-0.09658952037752909,"229":0.06751248153465271,"230":-0.03062754747138543,"231":0.06936793129966233,"232":0.12139472461678706,"233":-0.05785925191444557,"234":-0.05985150220642924,"235":-0.06091795466842998,"236":-0.09286344622364173,"237":-0.08216036717150785,"238":0.08015005470965177,"239":-0.08091466978361579,"240":0.03521293432354458,"241":0.03011627574611942,"242":0.05922665175278989,"243":-0.0368336094437584,"244":-0.06108988957569552,"245":-0.07969072929344005,"246":-0.08325196476066198,"247":0.0475992738722795,"248":-0.19366263358029792,"249":0.11684547699980383,"250":-0.07172594281171567,"251":-0.07250448105399515,"252":-0.04055487309651092,"253":-0.031474973002324665,"254":-0.10430133026953665,"255":-0.12052302360282256,"256":0.1794982454614891,"257":0.11644860017133243,"258":0.023112317122687263,"259":-0.01650374620676799,"260":0.021062604060427648,"261":-0.06573476353876205,"262":-0.15015501737395795,"263":-0.15351435651976889,"264":-0.1749776048442173,"265":0.3816315599938119,"266":0.014986612458061368,"267":-0.08244721579938652,"268":-0.057419351533583005,"269":-0.018260979048673163,"270":0.039730858339220965,"271":-0.08942322983013025,"272":0.022037622664910925,"273":-0.28051977630391195,"274":0.2972398888346497,"275":0.04410563821524649,"276":0.04347485100786772,"277":-0.13149927856333926,"278":-0.021909741799526598,"279":-0.10726219902057907,"280":0.08324216940768947,"281":-0.005061913863627511,"282":-0.006586702961873558,"283":0.10953389923755028,"284":0.1638548926472805,"285":0.009371952874436023,"286":0.010121175245374807,"287":-0.1254522668955785,"288":0.003221963824410721,"289":0.0010924992770080877,"290":-0.09030533434302182,"291":-0.12763665232899638,"292":0.13442805842695227,"293":-0.032431157614629884,"294":0.10860738008154273,"295":0.055090228964450955,"296":-0.018379584238545455,"297":-0.07330510482340517,"298":-0.0884010496171425,"299":-0.10837700870280714,"300":0.31442752693936743,"301":0.22371192837997095,"302":0.14413205312271343,"303":0.005775274953603322,"304":-0.03097319113348934,"305":0.07390545876487421,"306":0.03700344165887818,"307":0.09837981952565446,"308":-0.18777900161573607,"309":0.25973227851976494,"310":0.1949749442196735,"311":0.07830457172686062,"312":0.050678032108880604,"313":0.09999434151246611,"314":0.0283664418645425,"315":0.1030851878636344,"316":-0.01421544362750387,"317":-0.17885868757980009,"318":0.2245306634307078,"319":0.16103355597521168,"320":0.021615659874727407,"321":-0.06098178801093729,"322":-0.07617306842183233,"323":0.05163409748118965,"324":0.03744290493329784,"325":-0.08544275398494586,"326":0.07345965539182474,"327":0.25904258276211645,"328":0.24707835366648762,"329":0.04902200551953694,"330":-0.02005244344154464,"331":-0.09838204043857166,"332":-0.0015481936357560587,"333":0.11012595433081579,"334":0.038949659603775645,"335":0.2171410668724957,"336":0.009235422416309761,"337":-0.08826679164722054,"338":0.03830804183135842,"339":0.07390177776011167,"340":0.03480686937990236,"341":0.06861377531291434,"342":-0.08495179024701109,"343":-0.1623367780197956,"344":0.09004708645620671,"345":0.24264247758884555,"346":-0.11091522364660274,"347":0.034561917124383425,"348":-0.0005382528437714563,"349":-0.05367752184090625,"350":0.09491158141366286,"351":-0.1090994396626845,"352":-0.06917996904924119,"353":-0.06687243255801467,"354":0.39383351279514034,"355":-0.02128748388330601,"356":0.050326722861412446,"357":0.050425997703352494,"358":0.11482162052755593,"359":0.009529027560749739,"360":-0.10447046177257463,"361":-0.02904266399145895,"362":0.01683651589558682,"363":0.44208666967089305,"364":-0.2062782970639994,"365":0.05505687496014387,"366":-0.14925703473016075,"367":-0.0925736861187923,"368":-0.0609951356476739,"369":-0.07663964502571963,"370":-0.08060813874562675,"371":0.1398791869684897,"372":0.18131901408535833,"373":-0.2307385450680345,"374":0.14894121266430302,"375":0.05868998111810525,"376":-0.08458970202467571,"377":-0.004667217429668175,"378":0.09534832370497733,"379":-0.12489934112410123,"380":0.08841187313384659,"381":0.035459948873322066,"382":-0.2310733149666459,"383":-0.04975134173498158,"384":0.05652069491374214,"385":-0.10599953782465187,"386":-0.026289889452787842,"387":-0.0063439090473732425,"388":-0.011924405879501915,"389":0.030480505873951562,"390":-0.038446556532692196,"391":-0.2205579470914281,"392":-0.10109541555459788,"393":0.05199717355322626,"394":0.09013730922514565,"395":-0.009859135032735611,"396":0.04624092595509721,"397":0.01611742121434812,"398":0.054850366674224105,"399":-0.014653661918862367,"400":0.1574877011971124,"401":-0.1420275835684624,"402":0.017628031383649365,"403":0.03777225329798697,"404":-0.1426351411766694,"405":-0.05383196612280862,"406":0.08713328238180651,"407":0.07101537144419473,"408":0.07132715065171615,"409":0.13432661898394682,"410":-0.034919378860017114,"411":-0.0521330695176838,"412":-0.06628752985482259,"413":-0.05375149478109181,"414":0.025015823428431075,"415":0.06968746129864196,"416":-0.09583599401626622,"417":-0.026426107175211815,"418":0.0848669537294762,"419":-0.06393408329559908,"420":-0.056988236856505316,"421":-0.08799077994408717,"422":-0.07124170809882469,"423":0.144811666610125,"424":-0.1149050724401927,"425":0.165811584896381,"426":-0.10046207379226868,"427":-0.05187792509608234,"428":-0.12102410724797183,"429":-0.08857559982234037,"430":0.08102640248712865,"431":-0.030289313168495747,"432":-0.06082396473471938,"433":0.06198435796453779,"434":0.11120201597192148,"435":-0.07096061615016346,"436":-0.2091922177347328,"437":0.027393452776071907,"438":0.11176692941635344,"439":-0.04064295223978284,"440":0.06135978759336526,"441":0.027907304769895776,"442":-0.02549898468071154,"443":-0.13201965225004506,"444":0.006961001276287389,"445":0.01577611052197388,"446":0.22468570850634514,"447":-0.09641313392659934,"448":0.009159618509232385,"449":-0.0041053024438750625}},{"sx":1,"sy":1,"depth":450,"w":{"0":-0.023505528476986524,"1":0.06975653584684068,"2":-0.051491841040893584,"3":-0.055953452667688856,"4":-0.2190451590596072,"5":0.0200890715428065,"6":-0.18705292472528373,"7":-0.05985542820716231,"8":-0.03220420825571803,"9":-0.039185788491853835,"10":0.11550890280440915,"11":-0.083077957826275,"12":-0.06325521008045774,"13":0.05003114226943356,"14":0.04512346696153332,"15":0.010055127809877119,"16":0.09673922145005251,"17":0.1062596049057889,"18":0.09938018608931241,"19":0.2248391831247703,"20":0.006759731687101542,"21":0.31267349474192563,"22":0.022283764937404155,"23":-0.07415738707498015,"24":-0.0007855982819128996,"25":0.12705881042810677,"26":0.08783903437859392,"27":-0.036240786178446234,"28":0.05611768396134511,"29":0.0993927164428906,"30":0.025848198478210672,"31":-0.011209913405784212,"32":0.12186697215760818,"33":-0.031197344182447986,"34":0.053627223628137766,"35":-0.052514026069511804,"36":-0.10690111136552129,"37":0.0002435510181532682,"38":0.04382841977765371,"39":-0.11695578413162042,"40":0.05313606916379242,"41":0.011234507180375553,"42":0.19535770067688274,"43":0.08603100595866638,"44":0.0005089717055348161,"45":-0.016385236345848795,"46":-0.11379884961000665,"47":0.1027739409425615,"48":0.043728801417674455,"49":-0.001696306406848688,"50":-0.07528418060029987,"51":0.0758917259926928,"52":-0.013658455003790218,"53":-0.1353682692428169,"54":0.14450995485404677,"55":0.07179302817681754,"56":0.09240334768240428,"57":0.09749150456935253,"58":-0.06802588503620292,"59":0.03430183122345474,"60":-0.051606069501227925,"61":0.12146535198516002,"62":0.03197439184927879,"63":0.216205369335804,"64":0.02309217899657161,"65":0.015902795690102015,"66":0.005781498913760149,"67":0.03214680132250424,"68":-0.04514546696447592,"69":0.1138912472469363,"70":-0.050627986029760534,"71":0.05276221237830904,"72":-0.03997196634106543,"73":-0.06726413753187778,"74":0.031585797348641816,"75":-0.13167855600165188,"76":-0.005281813687174908,"77":-0.06302936004410839,"78":-0.01513459150634982,"79":-0.019860267361401063,"80":-0.02622516278517384,"81":0.029908993872029426,"82":0.054681783791726044,"83":0.06604620373660987,"84":-0.14403543034439395,"85":-0.0014144892181960445,"86":0.0669596585889526,"87":-0.050901341874242424,"88":-0.08030914849738308,"89":0.05156486490932311,"90":0.06590041766381034,"91":-0.0681918289881271,"92":-0.09917578346835676,"93":-0.060417181032734434,"94":-0.058726432478504766,"95":-0.01825292228954689,"96":0.08334674801449825,"97":-0.0892374399349408,"98":-0.007383819783255963,"99":-0.1000209393853915,"100":-0.0640862071203429,"101":0.006517130004934482,"102":-0.062011642902588024,"103":0.08796681053512184,"104":-0.10641594895166182,"105":0.053294283492647726,"106":-0.09543070671274757,"107":0.11264882147436625,"108":0.050677266100547964,"109":0.08287840903731279,"110":-0.00013145718481456992,"111":0.11544200859065284,"112":-0.0033058685152394327,"113":0.070581852791185,"114":0.032884975601988574,"115":-0.12534187348217535,"116":0.005877660126455123,"117":0.11650801176942953,"118":0.025558511536746896,"119":0.11652506468553786,"120":-0.05652154983062497,"121":-0.0505620968837076,"122":0.03180930299361164,"123":-0.05992285768658182,"124":-0.035707480059141636,"125":0.12603977854568713,"126":-0.10842165631512898,"127":-0.048447756134882294,"128":0.008893466483024626,"129":-0.10531350771615827,"130":-0.0644992342613639,"131":0.04123288046996308,"132":0.03267386788278284,"133":-0.14943050052050483,"134":0.08761516920164945,"135":0.04540566039490326,"136":-0.02741774442807311,"137":-0.028982588683553304,"138":0.0787208843465815,"139":-0.10376271678538335,"140":0.0787460844920401,"141":0.06741340854834776,"142":-0.10657004726169785,"143":0.027590411746372702,"144":0.004424074234784206,"145":0.03147975216013842,"146":-0.0711499193828799,"147":0.057655804052997896,"148":-0.07069495893113072,"149":0.058206050905865926,"150":-0.026639620468954645,"151":-0.04786878216207896,"152":-0.07986984104896097,"153":-0.023791845086913524,"154":0.01306665675349366,"155":-0.04223431721595575,"156":-0.10237324338791721,"157":-0.026494815182534465,"158":0.08961903124196043,"159":0.09381868074252349,"160":0.06198798823122663,"161":-0.06333068606590107,"162":-0.007465327266348526,"163":-0.08398058260546154,"164":-0.01340258473753797,"165":-0.10448708609318187,"166":-0.10641079494567122,"167":-0.04878942732120866,"168":-0.07906859064782125,"169":0.027293088590189994,"170":-0.11354804458860654,"171":0.007227649205502463,"172":0.005651621520741502,"173":0.10332657097211483,"174":0.03495126936234783,"175":-0.12391863063545078,"176":0.02497663355870814,"177":-0.15256437987343385,"178":-0.038158424928263,"179":0.08072749636935882,"180":0.016933806527237413,"181":-0.03297578329566213,"182":0.1977432935186862,"183":-0.13445532489984044,"184":-0.030316371317473025,"185":-0.05463849610152852,"186":0.10336161043968435,"187":-0.08272695351786152,"188":0.06074231990404196,"189":-0.027168004097811334,"190":-0.06002857381300313,"191":0.0884211962877671,"192":-0.06255299649520953,"193":-0.01587707518711276,"194":-0.08048029840411747,"195":0.008104235535678067,"196":-0.10932098288950207,"197":-0.003969039768236561,"198":-0.05300337868284079,"199":-0.028754595198549886,"200":-0.003720718418833655,"201":0.012586159620288941,"202":-0.022770640763507242,"203":-0.08140327852329089,"204":0.0723921868565915,"205":-0.06458765722043493,"206":0.012751588249192399,"207":-0.042823268626997375,"208":-0.0561523059054798,"209":0.10386508360195398,"210":-0.05349065917348168,"211":-0.10201028690098377,"212":0.05100905124572811,"213":0.0698948410960077,"214":0.0007387632234328631,"215":-0.043026257608430846,"216":0.10447340511564167,"217":-0.0026378903992373285,"218":0.002582589960806985,"219":-0.14689402990106742,"220":-0.02155383853398225,"221":0.10847750547306849,"222":-0.02625212046643923,"223":-0.01423903626531439,"224":0.07272673865657409,"225":0.09038002608730106,"226":-0.10268463777808867,"227":0.03085258964251514,"228":-0.07694636667706409,"229":-0.08835093736348566,"230":0.0074761415462682775,"231":0.0016653440114254288,"232":-0.045660806925580624,"233":-0.04340553565159331,"234":0.007822006755867406,"235":0.024645544397349162,"236":0.33491482486704766,"237":-0.12340708192041074,"238":-0.04788659211416066,"239":0.1313403896749521,"240":-0.03726809098544163,"241":0.055993363871581166,"242":0.11483679632949635,"243":0.0196735677524291,"244":-0.03554961296842426,"245":0.06415152473483586,"246":-0.25701433895251863,"247":0.045746691217522596,"248":0.17701866537131145,"249":-0.049142791635403665,"250":-0.057233256617439804,"251":-0.0034859185585287195,"252":0.027547509777866408,"253":-0.1090602562626128,"254":0.13395298194166896,"255":-0.16978279127167012,"256":-0.020632740046808973,"257":0.07193154064779453,"258":-0.13146124756672517,"259":0.010242591994396725,"260":-0.03255018522555284,"261":-0.05039768609656653,"262":0.1260290784219696,"263":0.1399160091077755,"264":-0.2527470469787447,"265":0.002990813491817054,"266":0.1281586798237659,"267":-0.023820655644645517,"268":0.013591314932755408,"269":0.0676499440144844,"270":0.042101390054043196,"271":-0.08281773220942379,"272":0.1678214482066935,"273":-0.21744870474795971,"274":0.012513610989602186,"275":0.10408791768111365,"276":0.111568358297186,"277":-0.06733133363704298,"278":-0.05879732525328073,"279":-0.005284706606556916,"280":0.07888120726170286,"281":0.1692805333622876,"282":-0.2770110595698648,"283":0.16392469103916432,"284":0.001057578529573788,"285":0.004994474254708763,"286":-0.07700680275451022,"287":0.024257644041778575,"288":-0.07049505593401188,"289":0.06152084241018478,"290":0.17733955907368792,"291":-0.09481108031394926,"292":-0.08933399479696444,"293":-0.061727080804715645,"294":0.03302835750735794,"295":-0.05140917606605379,"296":-0.04123780161054485,"297":0.04296925377308643,"298":0.023991906602402736,"299":0.18841461323303604,"300":-0.27817799251147335,"301":0.03435278307706511,"302":-0.08425624875012948,"303":-0.0027953146334812277,"304":0.11410257697946022,"305":-0.044278497652121704,"306":-0.06263604550509123,"307":0.023122922089690207,"308":0.07565526089428254,"309":-0.2488522807228091,"310":0.008237607847347905,"311":-0.01022557314745877,"312":0.016501038778473046,"313":0.11211948435979711,"314":0.030777638057803966,"315":-0.09372104853754405,"316":-0.08099624568991144,"317":0.08070476555066065,"318":-0.22667758122498874,"319":-0.2200007161701861,"320":-0.014030614164169323,"321":0.02534782273531194,"322":-0.027104108811721355,"323":-0.013420702310236088,"324":-0.10173852834449436,"325":-0.011125821423256818,"326":0.07232211131960657,"327":-0.10810984224887256,"328":-0.03394613559721259,"329":-0.05051099568963914,"330":-0.017176474281820037,"331":0.04133988937558106,"332":0.01766932912383859,"333":-0.021092493516483624,"334":-0.014161521236455456,"335":0.06301917936195454,"336":-0.13202422817585482,"337":-0.05546792871984722,"338":0.02206246907776372,"339":0.01905799966557018,"340":-0.015538276897886037,"341":-0.0014759174555749638,"342":-0.10543416449598521,"343":0.1218969202533085,"344":0.091543942134515,"345":-0.08306316607691908,"346":0.000252893261463345,"347":-0.006961877281711981,"348":-0.0603238471996458,"349":-0.07490133311555104,"350":-0.011414979225661707,"351":0.10508097349009295,"352":0.006107234809230014,"353":0.13924761563797491,"354":-0.06356354966463754,"355":0.08585242510233575,"356":0.04957219795332334,"357":-0.06748065895697444,"358":0.03904469663010228,"359":0.010978763443535024,"360":-0.08552703315457853,"361":0.04540471090386996,"362":0.05972417578663171,"363":-0.17345422231550106,"364":-0.0896786851824221,"365":0.032601271676865114,"366":-0.1496813325236496,"367":0.060741187092769565,"368":0.06123725402280929,"369":-0.13519236979345098,"370":-0.021526110505900635,"371":0.13918151575390858,"372":-0.08800425787438508,"373":-0.08576499799776487,"374":-0.1396546304437488,"375":-0.032038177578980725,"376":-0.01880673054623854,"377":0.0752244414711944,"378":-0.05063726331002938,"379":-0.07341702342296792,"380":0.10220300565060199,"381":-0.011387276898603138,"382":-0.05735158001764713,"383":-0.16031173537735852,"384":-0.06867179328791283,"385":-0.06104197818434661,"386":-0.01359335695433885,"387":0.03413392397623557,"388":0.0310086484343259,"389":0.023853807147026736,"390":-0.07816159110992266,"391":-0.09965407399646342,"392":-0.10587115718427895,"393":-0.07495041008270681,"394":0.02952697575205366,"395":-0.08732342656430989,"396":0.005329084730549081,"397":-0.10067650976217839,"398":0.008195227745990031,"399":-0.04639886051944815,"400":0.062216022387222895,"401":-0.12160483778366518,"402":-0.06448190138486881,"403":0.05525137129712169,"404":0.02122973266978941,"405":0.10705639100504258,"406":0.029322962389120664,"407":-0.08944150229540464,"408":0.011700675502734008,"409":0.08077238908477322,"410":-0.10480415233452645,"411":-0.021432092975150474,"412":-0.017690147618562562,"413":0.03714395186154282,"414":0.0288383092600595,"415":0.0938098225762565,"416":0.19351915641825998,"417":0.03211487246445106,"418":0.05408542340473611,"419":-0.16603791026276227,"420":0.006030545405398406,"421":0.014875551187908287,"422":0.13710322935471123,"423":-0.05876221416023408,"424":0.030152212095010053,"425":0.11906455918716136,"426":0.08339253678609018,"427":-0.06223329772842636,"428":-0.08289548595981426,"429":0.04375965400975684,"430":-0.01567505771985748,"431":0.08818955019088424,"432":-0.024485805800414432,"433":-0.01840028602405223,"434":-0.088559275935811,"435":0.03321465454795435,"436":0.20950841177161744,"437":-0.0888327239062733,"438":0.05080356042391854,"439":-0.04820490986208033,"440":0.030293192946748336,"441":0.04322923776905182,"442":-0.0878274099189571,"443":-0.10601891565951616,"444":-0.18512611897761946,"445":0.1698038134179908,"446":-0.0006315406217814428,"447":-0.22702389399142547,"448":0.18199663646319864,"449":0.06934579188595294}},{"sx":1,"sy":1,"depth":450,"w":{"0":0.04681618069911488,"1":0.0570852035226161,"2":0.017941809762161316,"3":-0.039332186272499126,"4":-0.12050043128745672,"5":0.040600064297329035,"6":0.06251689290352216,"7":0.023352849398113332,"8":0.1000243177335617,"9":0.027999206754268938,"10":-0.037198394344949974,"11":0.07542051931268123,"12":0.08419217055261756,"13":0.016003462788213393,"14":0.054336165876973534,"15":0.04620323898174315,"16":-0.03789108217389037,"17":0.02906248343042176,"18":0.020746801404473957,"19":0.07004023951370472,"20":0.02542495924611083,"21":0.07442226859313561,"22":-0.011544124416251866,"23":-0.06927523187025686,"24":-0.045422387679757176,"25":-0.04750903144330683,"26":0.09220262949749973,"27":0.0034991960867078223,"28":-0.015598646325744018,"29":0.042982403939558086,"30":-0.09369873252868985,"31":-0.040682445732824715,"32":0.046948989929616616,"33":0.003323214481587742,"34":0.11182995215293673,"35":0.018508614039813364,"36":0.13276032359767964,"37":-0.11588236356106003,"38":0.04285202529082209,"39":0.056917715939632074,"40":-0.028407273063447057,"41":0.05259583955184676,"42":0.09063740422302644,"43":0.052027987280228574,"44":-0.1489559601425226,"45":0.11103200224969521,"46":0.019001203086178232,"47":0.05276192439054423,"48":0.003586041316021294,"49":-0.043274532441891646,"50":-0.014957512575433483,"51":-0.021075610251537192,"52":-0.014591089485431747,"53":-0.11875915979221997,"54":0.043335261900983746,"55":-0.016032933843208398,"56":0.04105471751430514,"57":-0.1244132386443818,"58":-0.08926203065327719,"59":0.12142646496564549,"60":0.014047984459037726,"61":0.19379956138357454,"62":0.08266900855940637,"63":0.08379735258280022,"64":0.02581812296041863,"65":0.05752987124042122,"66":0.03024469927296375,"67":-0.04674398196296827,"68":0.13258279193010297,"69":-0.056219052259689,"70":0.11620196949002336,"71":0.01887808976714974,"72":-0.015767871696065656,"73":-0.009475863036686757,"74":-0.09330991235523593,"75":0.10509173802597688,"76":-0.13718793054269077,"77":0.017145985152010147,"78":-0.12883247317363794,"79":-0.09974046526135004,"80":-0.03630469803983014,"81":0.081415105770588,"82":0.046115255000729834,"83":-0.0003131093111296191,"84":-0.0026592969408486115,"85":-0.03267081573776142,"86":-0.009253847863328177,"87":0.16656745033483056,"88":-0.008567661522594996,"89":-0.08466562391844673,"90":0.11408389180617551,"91":-0.08256699232463131,"92":0.04261151014159747,"93":0.04436758001596003,"94":-0.149903500589476,"95":-0.03087030986024912,"96":-0.05580096996863276,"97":-0.005743680053969762,"98":-0.15314108161447934,"99":0.028962560344588023,"100":-0.10750722266465138,"101":-0.07227531697783209,"102":-0.006542177571663799,"103":-0.17513146552594785,"104":-0.04032161317938269,"105":0.05064478317841481,"106":0.019393746117920416,"107":-0.06702438539120188,"108":0.04718320001448164,"109":-0.06239739537481725,"110":0.01049764548795747,"111":-0.020520959959878425,"112":0.032810744713116916,"113":0.041145217377940135,"114":-0.023293728134925654,"115":0.10176152435321605,"116":-0.076442984730395,"117":-0.07882568922723994,"118":-0.02628993069968868,"119":-0.12419063871464385,"120":-0.02175689816697576,"121":-0.07349905597694471,"122":-0.01892427107689769,"123":0.031366453308244856,"124":0.06416418601675739,"125":-0.006479604402601728,"126":-0.04193955667356386,"127":-0.11978512244043757,"128":-0.09894147385303462,"129":-0.014510557767508639,"130":0.01356010243502734,"131":0.023376752751653303,"132":0.10078333707585113,"133":0.07044311076778986,"134":-0.045320420250173625,"135":0.04159827052222135,"136":-0.019680012526257895,"137":-0.030777776866440166,"138":-0.09354644624063874,"139":-0.04235571935493209,"140":-0.03322203991526796,"141":0.11831578567382385,"142":-0.02038015295226063,"143":0.0014962315463011833,"144":-0.04341204270332179,"145":-0.09003329290069936,"146":-0.0011968930824209768,"147":-0.0038349639076256463,"148":-0.005285591672912942,"149":-0.049528262373337205,"150":-0.013312002514637485,"151":-0.033151300371975924,"152":0.027586745968500713,"153":0.10363372975623386,"154":-0.04984432240234385,"155":-0.15238385549769576,"156":0.09884987893703197,"157":-0.053580738117840886,"158":0.15227014304700925,"159":-0.04303933000171504,"160":0.08078719497516994,"161":0.09642317767474368,"162":0.029685163864833844,"163":-0.07144797813693783,"164":-0.06531656417038392,"165":0.07648281692589043,"166":0.09349277687405923,"167":-0.10943569977523385,"168":-0.10847904250393059,"169":0.047550422084042004,"170":0.07357830587830631,"171":0.1719093398501685,"172":-0.017216391674248013,"173":-0.01811268665498989,"174":0.1724772578100811,"175":0.09258249019744232,"176":-0.05198506070024147,"177":-0.06636595293131972,"178":0.06244899387090409,"179":-0.018598124577415474,"180":0.1854787237263148,"181":0.09787838704434947,"182":-0.08455110980552291,"183":0.09026903117172494,"184":-0.1281269998730457,"185":-0.0416138937551524,"186":0.0031488211983190123,"187":0.04457893998216711,"188":0.04020587372982696,"189":0.13181011950602367,"190":0.03649967709549257,"191":0.07147974483492786,"192":0.03533569645546306,"193":-0.09182447783874488,"194":-0.12202325061240094,"195":-0.06701733167953756,"196":-0.015207877828368225,"197":0.08265628119957158,"198":0.05480971040753233,"199":0.06665434742469821,"200":0.01662001813679427,"201":-0.07384198988904819,"202":-0.04231503284310336,"203":-0.09505873026611937,"204":-0.03303163899451868,"205":-0.11335102558116496,"206":-0.013957036021421763,"207":0.04601876271485687,"208":-0.08034457851801817,"209":-0.13078224006910463,"210":-0.008945353248627884,"211":-0.06944266547529213,"212":-0.010949697181456766,"213":0.08249970305745359,"214":-0.060083502116303686,"215":-0.12471152645097629,"216":-0.014486602736431254,"217":0.05554601620649616,"218":0.06184635012181761,"219":0.04934928053118458,"220":0.011791737630560652,"221":0.09055650638626822,"222":-0.022397860744997465,"223":0.03950733137882336,"224":-0.0404839114970876,"225":0.02693576052847647,"226":0.0038719655799276196,"227":0.09205039336438138,"228":-0.033903632925373885,"229":0.020034944130159823,"230":0.008932811571750795,"231":0.1586538007388089,"232":0.08197307006550278,"233":-0.04778972959230006,"234":0.03202447063445072,"235":0.12995018462079092,"236":0.004313914822501785,"237":-0.02343358053137783,"238":-0.054646341607796134,"239":0.08867752276661511,"240":0.1188746873996822,"241":0.15495169717002952,"242":-0.08172178905694279,"243":0.030959290476412278,"244":-0.020568473188633717,"245":0.01002535806547741,"246":0.07702867727241769,"247":0.03443235475507838,"248":0.0896392200036398,"249":-0.05661624459992132,"250":0.02873610329929987,"251":0.09708408613910395,"252":0.10531000030380025,"253":-0.08196599798648811,"254":-0.15402199488648755,"255":0.05955417141686923,"256":0.0479502648830835,"257":0.13877789861639153,"258":0.11015056440584964,"259":0.1487344603678855,"260":-0.05081730317933436,"261":-0.018729810495129822,"262":-0.12383350475823526,"263":-0.16957899090063522,"264":-0.07806071394028223,"265":0.17432891451741894,"266":0.03174258231781768,"267":0.07903219530802906,"268":-0.023390324311494376,"269":-0.04226281645888537,"270":0.046076240763655234,"271":-0.14934426804695686,"272":-0.09400706156354718,"273":-0.15165394131863352,"274":0.11090926906554609,"275":0.053726154245637626,"276":0.11229533182105456,"277":0.05229746868395402,"278":-0.059564061967542235,"279":-0.01638373887678812,"280":-0.023357071746319263,"281":0.007587519181519828,"282":0.13023119413418904,"283":0.1696207096850118,"284":0.1258121536632687,"285":0.09070546033927455,"286":0.06329748077923861,"287":0.04795827505495001,"288":0.04134931228899571,"289":-0.07548475306686607,"290":-0.09524709489301952,"291":0.016057080090204214,"292":-0.0026223427593793937,"293":0.21811936542283147,"294":-0.03840314136538541,"295":0.036552615314283284,"296":0.04691048229149275,"297":0.11269520947961316,"298":-0.06250365412617563,"299":-0.05577200407296132,"300":-0.03418683809435689,"301":0.07760393230095744,"302":-0.22260485190782867,"303":-0.05357346386505091,"304":0.051097865979074744,"305":-0.0027974109257899596,"306":0.020486717462112315,"307":0.028665570542988864,"308":-0.10440229531217428,"309":0.08153634965094336,"310":-0.061562475007109166,"311":-0.08130864726252256,"312":-0.01219316815839912,"313":-0.006112881470747383,"314":0.08185032812307518,"315":0.06296236910477453,"316":-0.02997557747874523,"317":-0.004709890243349098,"318":-0.10127062778463047,"319":-0.04012570414028571,"320":-0.08312721238605686,"321":-0.04453814134371171,"322":0.09971250271810335,"323":-0.06661202233566293,"324":-0.039695344488685363,"325":-0.010657014264691518,"326":0.07928218625403391,"327":-0.024720912682605335,"328":0.09646264514714369,"329":-0.10305812496099326,"330":0.05254690894490457,"331":-0.05761130984402834,"332":0.013137248852544898,"333":0.0092970774483048,"334":-0.000503697990623774,"335":0.004064837496670082,"336":0.16007294784490098,"337":0.01007001876583186,"338":0.1016958021943901,"339":-0.009494067347227363,"340":-0.04732921270208916,"341":-0.040967816728477026,"342":-0.16093292851846014,"343":-0.12327417345771959,"344":0.027510939911322627,"345":-0.030889893267702816,"346":0.08504972048730347,"347":-0.11497634918246026,"348":-0.11867111143251051,"349":-0.004213470993350853,"350":0.014430981668421923,"351":-0.0439541631092509,"352":0.08972982093942344,"353":0.02109444628868715,"354":-0.16373971301295204,"355":0.06410811259575393,"356":-0.24100221375709613,"357":-0.09639830615658848,"358":0.040489771906317994,"359":0.03917365621803618,"360":-0.07863048397091602,"361":-0.11311503547446797,"362":0.11487988742424139,"363":0.03575049142573047,"364":0.25261398639965954,"365":-0.23127979841198926,"366":0.006786741061556013,"367":0.0924854823464723,"368":0.16085488293072017,"369":-0.059319539490460246,"370":0.000038789105197864374,"371":0.07663471687345462,"372":0.24500938874139655,"373":0.257176359177123,"374":0.0017247378131759197,"375":-0.044993834773011755,"376":0.06606410092850225,"377":0.001003086758802084,"378":-0.048675384186655346,"379":-0.0824423011820011,"380":-0.049697861711835246,"381":0.0609630345603431,"382":0.28067337191426167,"383":0.055209650193341606,"384":0.012961547968751581,"385":0.049009977195763624,"386":0.07890617325271515,"387":-0.0730596761127509,"388":-0.006231065726889048,"389":-0.019261531691158722,"390":-0.0566244258880683,"391":0.22365448634696825,"392":-0.07024227641129419,"393":-0.07504624796643523,"394":-0.14412651874401142,"395":-0.14239355490808894,"396":-0.09645749887091791,"397":0.05000546400631058,"398":-0.05783239663283166,"399":-0.06875900288861804,"400":0.01870156871552243,"401":-0.07108861760311579,"402":-0.002449809091811607,"403":-0.06629512390900663,"404":-0.14350549423560555,"405":0.055350656526412086,"406":0.17399110398892892,"407":0.1232425427437872,"408":-0.33760252018445575,"409":0.022821029964223253,"410":-0.2598354675928396,"411":-0.1189308376483093,"412":-0.08043540571682074,"413":-0.08471937475848963,"414":-0.06205352063344901,"415":0.18923394818698333,"416":-0.021881807031679364,"417":0.009124548131124533,"418":0.041795430938359954,"419":-0.14385878539108624,"420":-0.04019599498203126,"421":0.03514464620675612,"422":-0.010674744001454491,"423":-0.007191734588304129,"424":0.031046393533113035,"425":0.051604722655188354,"426":-0.025134408688674968,"427":-0.054526494854891146,"428":-0.028411878790273945,"429":-0.11270907485558106,"430":0.02620101295231141,"431":0.13968220734415263,"432":-0.010005545206285315,"433":0.14167718275317573,"434":0.0254681620312458,"435":-0.2383542998119743,"436":0.03402220336186416,"437":-0.14290979884416463,"438":-0.07635475290129287,"439":-0.197601954063583,"440":-0.13160429340589644,"441":-0.15828964023040482,"442":0.05947767506753835,"443":0.08657802662866408,"444":-0.07808635547421722,"445":0.08224022393282222,"446":0.03163798774803338,"447":0.04669029995000089,"448":0.04306906261443995,"449":0.13535757258822842}},{"sx":1,"sy":1,"depth":450,"w":{"0":0.040532148312005314,"1":-0.02107191089488874,"2":-0.013620926970441543,"3":0.14739756174505683,"4":0.02482802029539592,"5":-0.2554069190494208,"6":-0.18523585973262788,"7":0.21292422050983775,"8":0.03168498884515899,"9":0.1763747983797621,"10":-0.0650884003837781,"11":0.06088310914725547,"12":0.08191683676602177,"13":0.013930228971345718,"14":0.11514309681926443,"15":-0.10827555211518974,"16":0.09789388122289984,"17":-0.000030112729539888243,"18":0.033491310582547056,"19":0.031007726368807168,"20":0.07570576643649425,"21":0.027586941636555035,"22":-0.0426249840433391,"23":-0.03753865342811251,"24":-0.1394936953980169,"25":0.07978439232871617,"26":0.05502738140822568,"27":-0.12165245925379259,"28":0.003047010112265815,"29":0.10646122610083548,"30":0.003736840252947085,"31":-0.07464404238620014,"32":0.12785150773504583,"33":0.018391785655409422,"34":-0.22507932334153066,"35":0.015443208187229782,"36":0.004702287151009396,"37":0.016377866713912392,"38":0.08552177433244935,"39":0.1248558686227517,"40":0.17215721456905328,"41":-0.05986663491132716,"42":0.041463592973674586,"43":-0.0715789617357771,"44":-0.08548457626034814,"45":-0.05041724459368028,"46":0.03287588665062422,"47":-0.024186527679370566,"48":0.10960499741243272,"49":0.12974268877588505,"50":-0.11808313550795223,"51":0.10299663234018092,"52":-0.050542855095710285,"53":-0.1040662276452516,"54":-0.13440331964950444,"55":-0.007272474829316565,"56":0.050922445612621964,"57":0.03238192466294394,"58":0.02127178965774103,"59":0.0797780979008517,"60":0.04796602451977994,"61":-0.16744270993233934,"62":-0.05830561738389208,"63":-0.09885220417790758,"64":-0.1329142647385452,"65":-0.11297866159917491,"66":-0.12727860366680535,"67":0.09024521115882346,"68":0.012993989458096817,"69":-0.02042383654009621,"70":-0.06505616863162678,"71":0.05586964090541055,"72":-0.10776533619477334,"73":-0.13463539305262112,"74":-0.09983397862209083,"75":-0.15737870758365508,"76":-0.036543615446015,"77":-0.02313460734226306,"78":0.12550918740626002,"79":0.06983581672551896,"80":-0.04075219941156035,"81":-0.04542157928673205,"82":-0.06277338300285959,"83":-0.04625372352101222,"84":0.003347368940634824,"85":-0.08274747911443153,"86":0.03435195352100433,"87":0.03933653858550893,"88":0.08990755248901358,"89":0.03115773958910168,"90":0.04364642044050473,"91":-0.07394662486842374,"92":-0.0002582631982729644,"93":0.036053397227154546,"94":-0.06463752165644422,"95":-0.0130459124606105,"96":-0.033892294861965044,"97":0.13003402858214047,"98":-0.03646348428161958,"99":-0.03209579929175025,"100":0.030189408549522817,"101":0.13777578706409424,"102":-0.038340446077237945,"103":0.0037880054135536333,"104":0.05315055880351445,"105":0.10812463294985453,"106":0.086616616151307,"107":-0.21754835289989677,"108":0.07085542833645403,"109":-0.05423238360361803,"110":0.10243837608804336,"111":0.023944124648302482,"112":0.03905798421969685,"113":-0.007420817534511411,"114":-0.019184002442607897,"115":0.011085896093321312,"116":-0.10109819580967067,"117":0.16930796468555265,"118":0.05015738996305712,"119":0.18840264253052652,"120":-0.14463747847624314,"121":-0.04887820194169832,"122":0.05374101978082163,"123":-0.036230362437464005,"124":-0.06715020248160013,"125":-0.03586833659054024,"126":0.03803400500100243,"127":-0.01100905365391339,"128":0.0019687374372695707,"129":-0.1455746436017772,"130":-0.0645803711232934,"131":0.07387965656090988,"132":0.08426972434745444,"133":0.045293776805927666,"134":-0.10447329166505918,"135":0.04237055900505944,"136":-0.037044003669895346,"137":0.010664570617665993,"138":-0.04182981619090532,"139":-0.13461762360252041,"140":-0.07343896975724915,"141":-0.05720730562353464,"142":0.09190022849104476,"143":0.03754980053123855,"144":0.11347279952541524,"145":0.12115780133285856,"146":0.041689873863361634,"147":0.062296615971244244,"148":-0.016931059820726346,"149":0.08031389660500464,"150":-0.1489187056373135,"151":0.035770195342858545,"152":0.018847921516412344,"153":-0.0786902564517801,"154":0.032050648677171494,"155":-0.028483736953616553,"156":0.10468380199560309,"157":0.22484843213457129,"158":-0.09272934162738931,"159":-0.10876046456426541,"160":0.010753473262472339,"161":-0.06559150369612407,"162":-0.09854140150838814,"163":-0.07477211612705978,"164":0.14693888808620056,"165":0.030321069018445352,"166":0.08942081799757645,"167":-0.03487619668891038,"168":0.03923816026203733,"169":0.03795950036288893,"170":-0.13388948844164253,"171":-0.03052349815789037,"172":0.038445101205257425,"173":0.011711701687613017,"174":-0.01875732874423965,"175":0.11566069920352375,"176":-0.07017536394058843,"177":0.004775695036522665,"178":-0.041763218948665096,"179":-0.07941917666489809,"180":-0.19517254738028356,"181":-0.08929633032511908,"182":-0.10516431776148251,"183":-0.02405945999943751,"184":-0.053213965633904466,"185":-0.04418267545025668,"186":0.004894185599005988,"187":-0.013836127428507674,"188":0.04486245666099879,"189":-0.03744002005194045,"190":-0.0068302754385024264,"191":-0.03876696468167325,"192":-0.022559556584062414,"193":-0.1058800229383992,"194":0.014926551481060042,"195":0.07804308840912165,"196":0.08934006712317256,"197":-0.10923646977279923,"198":-0.05021848045908576,"199":-0.012243156796622648,"200":-0.09014528061318686,"201":0.07557316718233881,"202":0.054577162164394996,"203":-0.10899271088378805,"204":0.013611257705754099,"205":-0.07376478524468442,"206":0.005545916806460877,"207":0.1082974433789617,"208":0.042064215731568856,"209":-0.03910110583583777,"210":0.040431300850532384,"211":-0.06196510667891902,"212":0.04233840776595517,"213":0.06075920690016657,"214":-0.027523340868773834,"215":-0.08080995805319646,"216":0.012809413320189212,"217":0.06571329709985259,"218":0.0033562064326679623,"219":0.004473479629962412,"220":-0.05439786902807779,"221":-0.07269668245196712,"222":0.15216666259130723,"223":0.0391712243472614,"224":-0.05124249876807086,"225":0.0347207082215942,"226":0.059800825729543004,"227":-0.03069183563315765,"228":-0.1279604895756915,"229":-0.007793861816311833,"230":-0.1356747237306533,"231":0.08365860532003846,"232":-0.004092028111114533,"233":0.04099635534826854,"234":0.09536385922606903,"235":0.1341802341492177,"236":-0.06661717928551245,"237":-0.03239976129822421,"238":0.1869835733322133,"239":-0.02907768517470715,"240":0.08209906270846656,"241":0.08463815487782823,"242":-0.06378716578854035,"243":-0.050828164875838674,"244":-0.05519897540392774,"245":0.08823818414871575,"246":-0.21111114833360276,"247":0.18081425686746722,"248":-0.1016611012246759,"249":-0.03780522127137878,"250":0.06286722693198105,"251":-0.002516730251045677,"252":0.09814074068476197,"253":0.021407007166573948,"254":-0.016650426935387923,"255":-0.23215354686202144,"256":0.08434658461522973,"257":-0.13462098547317225,"258":0.011414679974606448,"259":0.07926832972687566,"260":-0.06264159130562774,"261":0.005135867599533604,"262":-0.03439397006169446,"263":-0.0018673657391270696,"264":-0.017985647350247397,"265":0.2592113712403739,"266":0.009674742828680347,"267":0.02647402715305362,"268":-0.022934961567337958,"269":0.0028236863226462254,"270":-0.00101437359400327,"271":-0.045632133369924374,"272":-0.007846368755499319,"273":0.22278145076262817,"274":0.05000407708775196,"275":0.03760420010668318,"276":-0.029432528726478106,"277":0.056796179116589095,"278":0.036677390257601174,"279":0.05206727602069758,"280":-0.0612159383708066,"281":0.017197801072288816,"282":0.33332238331602937,"283":0.19242641389688112,"284":0.06552603999063814,"285":-0.01844167809923178,"286":0.04535097756582343,"287":-0.03619598040989438,"288":-0.08471437381908704,"289":-0.06310490962729262,"290":0.10010055584385613,"291":0.18800117608059772,"292":0.21362240166106233,"293":-0.09044470346720081,"294":0.12414877228116823,"295":-0.04306791251070674,"296":0.061739588450846296,"297":0.06435060832493697,"298":0.000992967021341397,"299":-0.06269494905708595,"300":0.21500771446494094,"301":0.24306298417036148,"302":0.11274755742182574,"303":0.08381587520000225,"304":0.01674083016277542,"305":0.012004411443913615,"306":-0.014602532359741776,"307":-0.08490513040266372,"308":-0.07120435987755454,"309":0.3158964241279107,"310":0.3364995586109018,"311":0.03434991903058309,"312":-0.08156675349924902,"313":-0.016241658532652588,"314":-0.04296176952075687,"315":-0.022380712877189388,"316":0.01635577287012743,"317":-0.18600741931084494,"318":0.14502805853428852,"319":0.2713178815930636,"320":0.1957823657336494,"321":0.03352118963889337,"322":0.055536354962960215,"323":-0.08179567191401632,"324":0.06787094536350273,"325":-0.184882379724765,"326":-0.11171588872509332,"327":0.2724664041759645,"328":0.31911876585267096,"329":0.2804744827246614,"330":0.1013922872081196,"331":-0.12464603114965048,"332":-0.042779126802143505,"333":-0.028201870342810173,"334":-0.05283312407291867,"335":-0.1875707268894752,"336":-0.045896365033084675,"337":0.0915712425827469,"338":-0.19592729938313064,"339":0.02262965554900111,"340":0.118141098417907,"341":-0.17235565356047955,"342":0.0351149153245987,"343":-0.08394043260002679,"344":-0.10262855534490206,"345":-0.09177558937492836,"346":-0.011167801729338084,"347":-0.07902962925486978,"348":-0.08862755680455521,"349":-0.022061346507384616,"350":-0.09932903549405751,"351":0.08105105572325608,"352":-0.15221487818495877,"353":-0.009571010673240333,"354":0.2204875761011395,"355":-0.04405195463382065,"356":0.27321457368248286,"357":0.13114762117243633,"358":0.08384672287431771,"359":0.02640868333041052,"360":0.04399145486222946,"361":-0.004862093111406694,"362":-0.07187958807909743,"363":0.23937232223710908,"364":0.7519180543289722,"365":0.20273060424751357,"366":-0.12367200291099706,"367":0.1155221306365791,"368":0.01783338531111859,"369":0.05424230637084695,"370":-0.06303424304803061,"371":0.10663242116423118,"372":0.10801100744220372,"373":0.7475754651834364,"374":-0.006546163734540001,"375":-0.011735514107601845,"376":0.008898999983923305,"377":0.0430680443748786,"378":0.0057158375620506045,"379":-0.012800926877877306,"380":-0.11365328746973838,"381":-0.12516536772826078,"382":0.798209071237729,"383":-0.05100787442247138,"384":0.025099389754110767,"385":-0.024581560906390555,"386":0.05114723039713418,"387":-0.013376323983875525,"388":-0.010779030150076904,"389":-0.11480405986161325,"390":-0.08754954042958421,"391":0.7423858544100177,"392":-0.23733998301771972,"393":0.059782071986449886,"394":-0.10533889156178049,"395":-0.03076293375690354,"396":0.21323531226042874,"397":-0.058423291263013,"398":-0.02308141026381737,"399":-0.10774315967312666,"400":-0.2529164738926206,"401":-0.030103934580086325,"402":0.013034037140553711,"403":0.08778928589721251,"404":0.05018078482738602,"405":-0.046447012821415765,"406":0.04022501078077836,"407":-0.025760601939312046,"408":-0.13028444918680634,"409":-0.20445489042172013,"410":-0.059465017862851306,"411":0.017189166201917943,"412":0.11504961616629962,"413":0.11098339314087709,"414":0.09830238226505954,"415":-0.0183928331313291,"416":-0.007024201536996131,"417":-0.10504159491542625,"418":-0.14720300807146922,"419":0.11907064669005486,"420":0.11619733481503142,"421":0.0228768904919521,"422":0.03058758093890601,"423":0.14564422265445987,"424":-0.02187271412784725,"425":0.048633076942358834,"426":-0.228283611611383,"427":-0.011261494125685207,"428":0.10735802675996596,"429":-0.06341431613708405,"430":-0.07219937284096387,"431":-0.07167937849505898,"432":0.017946855668473507,"433":-0.038510383261043245,"434":0.02926853164571954,"435":-0.09855116700490901,"436":0.0579563392917096,"437":0.01699129240185341,"438":0.02339337454292543,"439":-0.09929765273691521,"440":-0.0885353770049879,"441":0.007409272650603077,"442":0.08891527504458943,"443":-0.09267324486297253,"444":0.06509445864725151,"445":-0.12173175727803086,"446":0.07719652552592758,"447":-0.12124626557048813,"448":0.03306508460236214,"449":-0.08516095871085068}},{"sx":1,"sy":1,"depth":450,"w":{"0":-0.023418197989087588,"1":-0.04723153559995851,"2":0.035448741282962846,"3":-0.0064828264743748655,"4":0.0645039908111652,"5":-0.025583025094423985,"6":0.006788031071626093,"7":0.03586743897920058,"8":-0.038685230921870095,"9":0.023193813182244814,"10":0.012647974941657937,"11":0.017687733293164146,"12":-0.07961985721157248,"13":-0.06029095241090642,"14":-0.03570701769538934,"15":-0.0531612596933012,"16":-0.059587144433562375,"17":-0.03280091437650834,"18":-0.10894518606015506,"19":-0.15961555571522432,"20":0.14180485249870087,"21":-0.053674343739172854,"22":-0.06105421727691178,"23":-0.08373450243863632,"24":-0.07085443186300529,"25":-0.03540913960693465,"26":-0.025855111611729632,"27":-0.15573251018580217,"28":0.002013817499535434,"29":0.16306606568202914,"30":0.016639115419631065,"31":0.0428183234665728,"32":0.060668136137524475,"33":0.010005952938815614,"34":-0.0702411185619378,"35":-0.10706516783260435,"36":-0.014757976933715552,"37":-0.0566487997949653,"38":0.053454311745624546,"39":-0.06805132743452254,"40":-0.0003429928276930337,"41":-0.15563145237223833,"42":0.08949966049014421,"43":-0.02124145599274049,"44":0.005540842951017791,"45":0.11068091139097563,"46":0.1214860891702778,"47":-0.041205756113684315,"48":-0.06460826780100594,"49":0.05552191051661696,"50":0.029934327173225198,"51":0.12770689733329166,"52":-0.009231655366795566,"53":0.0026651662191833473,"54":-0.043024281439092725,"55":0.015618881731490012,"56":-0.034878244382647305,"57":-0.10929362689797599,"58":-0.01887691524267815,"59":0.02998536998724429,"60":-0.04643503024836835,"61":-0.1603407027173435,"62":0.14766737870936375,"63":0.035038029935618185,"64":-0.03782668107499118,"65":0.02083026682282091,"66":0.08850747283643358,"67":-0.034324447743299326,"68":-0.1060567589573438,"69":0.05038611965146608,"70":-0.06531734765414203,"71":0.00892992188017889,"72":0.05085037679492912,"73":0.03168725621344378,"74":0.0140759219439582,"75":-0.03150711797456996,"76":-0.032183904508213,"77":-0.021200634211176746,"78":-0.02439512137091738,"79":-0.1566985863093372,"80":0.043047746831790856,"81":-0.11643681325570972,"82":-0.05929427943765051,"83":0.11739323076703691,"84":-0.15283918282613762,"85":0.00636463138630699,"86":-0.046913132743937186,"87":0.05993582441983099,"88":-0.11014904894272902,"89":0.16019578334795717,"90":0.020778333205995543,"91":0.025233866914243654,"92":0.018261206304410926,"93":-0.09555509415411576,"94":-0.11884819010783991,